svm_type c_svc
kernel_type rbf
gamma 0.00195313
nr_class 3
total_sv 2859
rho -0.665482 -0.453085 0.289237
label 0 1 2
nr_sv 1164 811 884
SV
1.497917352817649 2 1:0 2:0 3:26 4:77 5:72 6:72 7:83 8:74 9:70 10:74 
1.388392802709222 0 1:0 2:0 3:5 4:83 5:83 6:85 7:82 8:79 9:78 10:77 
2 2 1:0 2:0 3:34 4:73 5:72 6:70 7:81 8:79 9:77 10:76 
0.2771605908026165 0 1:0 2:0 3:23 4:84 5:77 6:75 7:77 8:71 9:71 10:69 
0.9494599014371715 0.2679240607803955 1:1 2:0 3:18 4:94 5:85 6:84 7:76 8:72 9:72 10:74 
2 1.777006587265232 1:0 2:1 3:0 4:83 5:74 6:70 7:66 8:64 9:58 10:66 
2 2 1:0 2:3 3:26 4:76 5:72 6:72 7:83 8:74 9:70 10:74 
2 2 1:1 2:4 3:4 4:82 5:78 6:73 7:94 8:85 9:84 10:81 
2 2 1:3 2:3 3:25 4:75 5:74 6:70 7:92 8:87 9:86 10:86 
0.7932351342539918 2 1:3 2:4 3:29 4:73 5:72 6:70 7:84 8:77 9:75 10:75 
2 2 1:3 2:6 3:12 4:77 5:71 6:71 7:75 8:74 9:70 10:77 
2 2 1:3 2:4 3:3 4:83 5:74 6:70 7:82 8:78 9:73 10:78 
2 0 1:3 2:6 3:22 4:78 5:76 6:74 7:73 8:72 9:70 10:71 
0.581354208200218 0.71114197438266 1:3 2:4 3:2 4:92 5:87 6:86 7:77 8:72 9:72 10:66 
1.371023580765415 0 1:6 2:6 3:26 4:83 5:83 6:85 7:83 8:74 9:70 10:74 
0 2 1:9 2:5 3:29 4:78 5:75 6:75 7:84 8:77 9:75 10:75 
2 2 1:6 2:5 3:7 4:73 5:72 6:70 7:68 8:70 9:68 10:72 
2 2 1:11 2:9 3:32 4:80 5:76 6:77 7:83 8:83 9:85 10:81 
0 1.590332776797025 1:9 2:4 3:18 4:92 5:87 6:86 7:76 8:72 9:72 10:74 
2 0 1:5 2:5 3:2 4:81 5:79 6:77 7:77 8:72 9:72 10:66 
1.938303834500765 2 1:6 2:14 3:13 4:82 5:79 6:78 7:80 8:76 9:77 10:73 
2 2 1:12 2:13 3:6 4:73 5:72 6:70 7:78 8:75 9:75 10:73 
2 2 1:9 2:7 3:20 4:83 5:83 6:85 7:80 8:74 9:72 10:74 
1.032826791055441 0 1:9 2:12 3:22 4:94 5:85 6:84 7:73 8:72 9:70 10:71 
1.423606809745756 0 1:6 2:5 3:0 4:84 5:77 6:75 7:66 8:64 9:58 10:66 
1.965881789890019 2 1:9 2:2 3:2 4:68 5:70 6:68 7:77 8:72 9:72 10:66 
2 0 1:10 2:7 3:12 4:78 5:75 6:75 7:75 8:74 9:70 10:77 
2 0 1:11 2:7 3:27 4:80 5:76 6:77 7:78 8:76 9:74 10:76 
2 2 1:7 2:9 3:5 4:80 5:74 6:72 7:82 8:79 9:78 10:77 
2 2 1:10 2:7 3:9 4:83 5:74 6:70 7:80 8:81 9:82 10:81 
2 0 1:9 2:5 3:18 4:81 5:79 6:77 7:76 8:72 9:72 10:74 
0.4622300050863509 0 1:9 2:10 3:26 4:94 5:85 6:84 7:83 8:74 9:70 10:74 
1.263620924620284 2 1:4 2:13 3:13 4:80 5:81 6:82 7:80 8:76 9:77 10:73 
2 0.4287992073960664 1:12 2:4 3:12 4:73 5:72 6:70 7:75 8:74 9:70 10:77 
2 2 1:11 2:11 3:32 4:81 5:79 6:77 7:83 8:83 9:85 10:81 
2 1.60437531523501 1:11 2:6 3:0 4:78 5:75 6:75 7:66 8:64 9:58 10:66 
2 2 1:6 2:15 3:25 4:80 5:81 6:82 7:92 8:87 9:86 10:86 
2 2 1:5 2:11 3:6 4:76 5:72 6:72 7:78 8:75 9:75 10:73 
0 1.648177779459054 1:15 2:3 3:2 4:73 5:72 6:70 7:77 8:72 9:72 10:66 
2 0 1:8 2:8 3:7 4:82 5:78 6:73 7:68 8:70 9:68 10:72 
2 2 1:7 2:9 3:13 4:83 5:74 6:70 7:80 8:76 9:77 10:73 
0.6969993043543581 2 1:12 2:5 3:5 4:84 5:77 6:75 7:82 8:79 9:78 10:77 
2 2 1:8 2:11 3:3 4:78 5:75 6:75 7:82 8:78 9:73 10:78 
2 2 1:3 2:8 3:18 4:75 5:74 6:70 7:76 8:72 9:72 10:74 
0.2778629998576088 2 1:5 2:10 3:26 4:80 5:74 6:72 7:83 8:74 9:70 10:74 
2 0 1:10 2:10 3:6 4:83 5:83 6:85 7:78 8:75 9:75 10:73 
0 2 1:4 2:8 3:20 4:80 5:76 6:77 7:80 8:74 9:72 10:74 
2 1.526140233792157 1:13 2:6 3:0 4:73 5:72 6:70 7:66 8:64 9:58 10:66 
2 2 1:10 2:2 3:5 4:78 5:75 6:75 7:82 8:79 9:78 10:77 
2 0.3128978635200624 1:18 2:11 3:29 4:94 5:85 6:84 7:84 8:77 9:75 10:75 
0 2 1:13 2:2 3:7 4:80 5:81 6:82 7:68 8:70 9:68 10:72 
0.7493398013548263 2 1:16 2:10 3:18 4:73 5:72 6:70 7:76 8:72 9:72 10:74 
2 2 1:6 2:10 3:6 4:78 5:76 6:74 7:78 8:75 9:75 10:73 
2 2 1:6 2:3 3:5 4:77 5:72 6:72 7:82 8:79 9:78 10:77 
0.9510281616581391 0 1:10 2:5 3:26 4:84 5:77 6:75 7:83 8:74 9:70 10:74 
0 2 1:13 2:4 3:13 4:81 5:79 6:77 7:80 8:76 9:77 10:73 
0.0412651166018719 0 1:2 2:5 3:0 4:82 5:79 6:78 7:66 8:64 9:58 10:66 
2 2 1:4 2:12 3:29 4:80 5:76 6:77 7:84 8:77 9:75 10:75 
1.717798887734077 2 1:5 2:1 3:7 4:83 5:74 6:70 7:68 8:70 9:68 10:72 
1.360517416814662 0.8131293559463956 1:13 2:7 3:18 4:83 5:83 6:85 7:76 8:72 9:72 10:74 
2 2 1:9 2:8 3:2 4:78 5:76 6:74 7:77 8:72 9:72 10:66 
2 2 1:14 2:7 3:3 4:73 5:72 6:70 7:82 8:78 9:73 10:78 
2 2 1:1 2:7 3:13 4:68 5:70 6:68 7:80 8:76 9:77 10:73 
0 2 1:6 2:5 3:26 4:78 5:75 6:75 7:83 8:74 9:70 10:74 
0 0.1264746783881948 1:9 2:5 3:20 4:84 5:77 6:75 7:80 8:74 9:72 10:74 
2 2 1:6 2:5 3:3 4:82 5:79 6:78 7:82 8:78 9:73 10:78 
2 0.04839299599950292 1:14 2:14 3:22 4:83 5:83 6:85 7:73 8:72 9:70 10:71 
0 0.06953579029999059 1:18 2:8 3:2 4:94 5:85 6:84 7:77 8:72 9:72 10:66 
2 2 1:9 2:11 3:34 4:77 5:71 6:71 7:81 8:79 9:77 10:76 
2 1.868195118300925 1:9 2:9 3:29 4:92 5:87 6:86 7:84 8:77 9:75 10:75 
2 0 1:13 2:5 3:18 4:78 5:76 6:74 7:76 8:72 9:72 10:74 
0 0.1702247547748612 1:18 2:4 3:0 4:94 5:85 6:84 7:66 8:64 9:58 10:66 
2 0 1:4 2:8 3:12 4:80 5:76 6:77 7:75 8:74 9:70 10:77 
0.346275688802568 0 1:8 2:11 3:22 4:81 5:79 6:77 7:73 8:72 9:70 10:71 
2 2 1:5 2:7 3:13 4:77 5:72 6:72 7:80 8:76 9:77 10:73 
2 2 1:6 2:10 3:9 4:82 5:78 6:73 7:80 8:81 9:82 10:81 
0.5077068381447083 2 1:4 2:4 3:26 4:66 5:64 6:58 7:83 8:74 9:70 10:74 
0 2 1:8 2:2 3:20 4:75 5:74 6:70 7:80 8:74 9:72 10:74 
1.514954891435143 2 1:9 2:11 3:34 4:84 5:77 6:75 7:81 8:79 9:77 10:76 
1.197753417414849 2 1:2 2:7 3:2 4:80 5:74 6:72 7:77 8:72 9:72 10:66 
2 2 1:4 2:3 3:18 4:83 5:74 6:70 7:76 8:72 9:72 10:74 
2 2 1:11 2:10 3:5 4:78 5:76 6:74 7:82 8:79 9:78 10:77 
0 2 1:10 2:7 3:26 4:82 5:78 6:73 7:83 8:74 9:70 10:74 
2 2 1:10 2:6 3:34 4:78 5:75 6:75 7:81 8:79 9:77 10:76 
0 2 1:7 2:4 3:20 4:66 5:64 6:58 7:80 8:74 9:72 10:74 
2 2 1:14 2:15 3:4 4:83 5:83 6:85 7:94 8:85 9:84 10:81 
2 2 1:12 2:13 3:6 4:84 5:77 6:75 7:78 8:75 9:75 10:73 
2 0 1:5 2:6 3:12 4:81 5:79 6:77 7:75 8:74 9:70 10:77 
0.02728462141885685 0 1:15 2:3 3:20 4:82 5:78 6:73 7:80 8:74 9:72 10:74 
0 2 1:10 2:5 3:7 4:78 5:75 6:75 7:68 8:70 9:68 10:72 
2 2 1:6 2:12 3:29 4:75 5:74 6:70 7:84 8:77 9:75 10:75 
2 2 1:5 2:18 3:25 4:76 5:72 6:72 7:92 8:87 9:86 10:86 
2 1.905094790486011 1:12 2:8 3:9 4:94 5:85 6:84 7:80 8:81 9:82 10:81 
2 2 1:2 2:6 3:12 4:68 5:70 6:68 7:75 8:74 9:70 10:77 
0.8146028006491471 1.745207419056508 1:15 2:18 3:3 4:92 5:87 6:86 7:82 8:78 9:73 10:78 
2 0 1:8 2:8 3:0 4:81 5:79 6:77 7:66 8:64 9:58 10:66 
2 0 1:12 2:7 3:22 4:78 5:75 6:75 7:73 8:72 9:70 10:71 
2 2 1:6 2:6 3:5 4:80 5:76 6:77 7:82 8:79 9:78 10:77 
2 2 1:6 2:12 3:6 4:75 5:74 6:70 7:78 8:75 9:75 10:73 
0.6319777252013545 2 1:7 2:5 3:7 4:77 5:72 6:72 7:68 8:70 9:68 10:72 
2 2 1:8 2:12 3:29 4:66 5:64 6:58 7:84 8:77 9:75 10:75 
2 2 1:7 2:12 3:4 4:73 5:72 6:70 7:94 8:85 9:84 10:81 
2 2 1:5 2:12 3:32 4:77 5:71 6:71 7:83 8:83 9:85 10:81 
2 2 1:8 2:9 3:6 4:66 5:64 6:58 7:78 8:75 9:75 10:73 
0.8504664256776251 0 1:10 2:2 3:20 4:80 5:81 6:82 7:80 8:74 9:72 10:74 
0 2 1:10 2:4 3:7 4:76 5:72 6:72 7:68 8:70 9:68 10:72 
1.475589982498815 2 1:10 2:3 3:26 4:73 5:72 6:70 7:83 8:74 9:70 10:74 
2 2 1:11 2:12 3:22 4:77 5:72 6:72 7:73 8:72 9:70 10:71 
2 2 1:6 2:12 3:18 4:78 5:75 6:75 7:76 8:72 9:72 10:74 
1.213181821625388 0 1:9 2:10 3:9 4:92 5:87 6:86 7:80 8:81 9:82 10:81 
2 2 1:10 2:7 3:32 4:84 5:77 6:75 7:83 8:83 9:85 10:81 
1.065685159016904 2 1:3 2:3 3:20 4:83 5:74 6:70 7:80 8:74 9:72 10:74 
0 2 1:11 2:10 3:29 4:82 5:79 6:78 7:84 8:77 9:75 10:75 
2 0 1:9 2:6 3:23 4:80 5:81 6:82 7:77 8:71 9:71 10:69 
0.03778707544755695 0 1:4 2:5 3:7 4:83 5:83 6:85 7:68 8:70 9:68 10:72 
2 0 1:9 2:7 3:34 4:94 5:85 6:84 7:81 8:79 9:77 10:76 
0 2 1:7 2:5 3:23 4:83 5:74 6:70 7:77 8:71 9:71 10:69 
2 0 1:8 2:7 3:12 4:83 5:83 6:85 7:75 8:74 9:70 10:77 
2 2 1:9 2:6 3:27 4:78 5:75 6:75 7:78 8:76 9:74 10:76 
2 2 1:4 2:11 3:5 4:75 5:74 6:70 7:82 8:79 9:78 10:77 
0.02980059464395424 0 1:8 2:2 3:20 4:92 5:87 6:86 7:80 8:74 9:72 10:74 
2 2 1:9 2:12 3:4 4:84 5:77 6:75 7:94 8:85 9:84 10:81 
0 0.4993495776279239 1:13 2:6 3:0 4:83 5:83 6:85 7:66 8:64 9:58 10:66 
2 2 1:6 2:3 3:27 4:77 5:72 6:72 7:78 8:76 9:74 10:76 
2 2 1:3 2:8 3:5 4:66 5:64 6:58 7:82 8:79 9:78 10:77 
2 2 1:6 2:15 3:32 4:76 5:72 6:72 7:83 8:83 9:85 10:81 
0 2 1:11 2:14 3:13 4:84 5:77 6:75 7:80 8:76 9:77 10:73 
0.2916076683951263 0 1:11 2:6 3:12 4:94 5:85 6:84 7:75 8:74 9:70 10:77 
1.298380540592922 1.52031691136186 1:4 2:10 3:22 4:77 5:71 6:71 7:73 8:72 9:70 10:71 
2 1.846401702232079 1:2 2:5 3:0 4:78 5:76 6:74 7:66 8:64 9:58 10:66 
2 2 1:6 2:1 3:20 4:68 5:70 6:68 7:80 8:74 9:72 10:74 
2 2 1:10 2:11 3:13 4:78 5:75 6:75 7:80 8:76 9:77 10:73 
2 2 1:4 2:6 3:9 4:66 5:64 6:58 7:80 8:81 9:82 10:81 
2 2 1:5 2:9 3:26 4:75 5:74 6:70 7:83 8:74 9:70 10:74 
2 2 1:8 2:5 3:27 4:76 5:72 6:72 7:78 8:76 9:74 10:76 
0.3441604066070595 0 1:6 2:7 3:23 4:81 5:79 6:77 7:77 8:71 9:71 10:69 
0 2 1:10 2:13 3:32 4:73 5:72 6:70 7:83 8:83 9:85 10:81 
2 2 1:14 2:12 3:25 4:84 5:77 6:75 7:92 8:87 9:86 10:86 
2 2 1:8 2:13 3:4 4:77 5:72 6:72 7:94 8:85 9:84 10:81 
0.6857617659289523 2 1:0 2:0 3:27 4:75 5:72 6:75 7:76 8:78 9:77 10:72 
0.1146100635903582 0 1:0 2:0 3:17 4:79 5:81 6:76 7:74 8:73 9:74 10:73 
1.461302943099512 1.048168828993433 1:3 2:0 3:22 4:85 5:83 6:83 7:78 8:80 9:76 10:73 
2 2 1:0 2:1 3:2 4:76 5:76 6:74 7:76 8:75 9:74 10:73 
2 0 1:3 2:0 3:23 4:74 5:74 6:74 7:72 8:72 9:71 10:68 
2 2 1:4 2:1 3:34 4:75 5:72 6:75 7:77 8:80 9:76 10:73 
2 2 1:0 2:3 3:6 4:76 5:78 6:74 7:74 8:76 9:73 10:73 
2 0 1:0 2:3 3:14 4:78 5:80 6:76 7:72 8:75 9:70 10:68 
0 0.6934092570574897 1:6 2:3 3:5 4:79 5:81 6:76 7:76 8:76 9:74 10:73 
0 2 1:6 2:9 3:29 4:79 5:82 6:76 7:79 8:81 9:76 10:77 
2 2 1:3 2:7 3:9 4:74 5:73 6:74 7:75 8:72 9:75 10:75 
2 2 1:2 2:3 3:12 4:72 5:71 6:71 7:76 8:78 9:74 10:72 
2 2 1:1 2:6 3:27 4:77 5:80 6:76 7:76 8:78 9:77 10:72 
2 2 1:7 2:3 3:5 4:72 5:70 6:71 7:76 8:76 9:74 10:73 
0 1.672839915941457 1:10 2:4 3:14 4:81 5:83 6:80 7:72 8:75 9:70 10:68 
2 0.1901979865630438 1:10 2:10 3:28 4:79 5:82 6:76 7:72 8:70 9:71 10:68 
2 2 1:7 2:11 3:25 4:74 5:74 6:74 7:84 8:85 9:81 10:81 
1.600926163623624 0 1:13 2:12 3:29 4:85 5:83 6:83 7:79 8:81 9:76 10:77 
2 2 1:4 2:13 3:32 4:74 5:76 6:73 7:81 8:83 9:80 10:78 
2 2 1:11 2:13 3:3 4:75 5:72 6:75 7:79 8:82 9:76 10:77 
2 2 1:10 2:4 3:5 4:76 5:78 6:77 7:76 8:76 9:74 10:73 
0 2 1:11 2:16 3:4 4:84 5:85 6:81 7:85 8:83 9:83 10:82 
2 2 1:12 2:4 3:14 4:79 5:81 6:76 7:72 8:75 9:70 10:68 
0 2 1:13 2:7 3:22 4:81 5:83 6:80 7:78 8:80 9:76 10:73 
2 2 1:6 2:13 3:32 4:72 5:72 6:71 7:81 8:83 9:80 10:78 
2 2 1:10 2:11 3:9 4:74 5:74 6:74 7:75 8:72 9:75 10:75 
0 2 1:12 2:8 3:22 4:79 5:81 6:76 7:78 8:80 9:76 10:73 
2 2 1:13 2:10 3:13 4:76 5:78 6:77 7:74 8:74 9:74 10:74 
0 2 1:8 2:14 3:34 4:79 5:82 6:76 7:77 8:80 9:76 10:73 
0 1.077926229534261 1:11 2:13 3:27 4:85 5:83 6:83 7:76 8:78 9:77 10:72 
2 1.137610729556997 1:1 2:9 3:17 4:76 5:76 6:74 7:74 8:73 9:74 10:73 
0 2 1:10 2:11 3:18 4:74 5:74 6:74 7:72 8:71 9:71 10:71 
0 2 1:13 2:8 3:32 4:79 5:81 6:76 7:81 8:83 9:80 10:78 
2 2 1:6 2:6 3:2 4:76 5:78 6:74 7:76 8:75 9:74 10:73 
0 2 1:9 2:2 3:22 4:72 5:70 6:71 7:78 8:80 9:76 10:73 
0 2 1:11 2:12 3:13 4:77 5:80 6:76 7:74 8:74 9:74 10:74 
0.8428293016567238 2 1:13 2:1 3:14 4:76 5:78 6:77 7:72 8:75 9:70 10:68 
1.858188645595019 0 1:1 2:6 3:9 4:78 5:80 6:76 7:75 8:72 9:75 10:75 
0.776777230448726 2 1:9 2:9 3:28 4:72 5:72 6:71 7:72 8:70 9:71 10:68 
0 2 1:9 2:5 3:32 4:72 5:70 6:71 7:81 8:83 9:80 10:78 
0 2 1:8 2:16 3:29 4:76 5:78 6:74 7:79 8:81 9:76 10:77 
1.579475093865258 0 1:15 2:3 3:2 4:84 5:85 6:81 7:76 8:75 9:74 10:73 
2 2 1:10 2:1 3:14 4:77 5:80 6:76 7:72 8:75 9:70 10:68 
2 2 1:13 2:15 3:25 4:79 5:81 6:76 7:84 8:85 9:81 10:81 
2 2 1:3 2:12 3:28 4:76 5:75 6:74 7:72 8:70 9:71 10:68 
2 0 1:7 2:8 3:18 4:78 5:80 6:76 7:72 8:71 9:71 10:71 
2 2 1:1 2:6 3:17 4:72 5:75 6:70 7:74 8:73 9:74 10:73 
2 0 1:4 2:4 3:14 4:72 5:72 6:72 7:72 8:75 9:70 10:68 
2 2 1:8 2:7 3:34 4:72 5:72 6:71 7:77 8:80 9:76 10:73 
2 2 1:7 2:15 3:22 4:72 5:72 6:72 7:78 8:80 9:76 10:73 
0 2 1:8 2:15 3:29 4:76 5:78 6:77 7:79 8:81 9:76 10:77 
2 2 1:7 2:8 3:6 4:76 5:76 6:74 7:74 8:76 9:73 10:73 
2 2 1:1 2:12 3:25 4:75 5:72 6:75 7:84 8:85 9:81 10:81 
2 0 1:3 2:10 3:23 4:74 5:73 6:74 7:72 8:72 9:71 10:68 
2 2 1:10 2:10 3:4 4:76 5:78 6:74 7:85 8:83 9:83 10:82 
0 0.6187868694481402 1:15 2:9 3:5 4:78 5:80 6:76 7:76 8:76 9:74 10:73 
0 2 1:10 2:9 3:26 4:72 5:72 6:71 7:72 8:72 9:72 10:70 
0 2 1:11 2:15 3:22 4:79 5:82 6:76 7:78 8:80 9:76 10:73 
2 2 1:6 2:4 3:6 4:74 5:74 6:74 7:74 8:76 9:73 10:73 
2 2 1:5 2:9 3:25 4:77 5:80 6:76 7:84 8:85 9:81 10:81 
0.07694914843793382 0 1:9 2:3 3:6 4:85 5:83 6:83 7:74 8:76 9:73 10:73 
1.54182662970719 2 1:9 2:18 3:32 4:76 5:76 6:74 7:81 8:83 9:80 10:78 
2 2 1:8 2:12 3:22 4:74 5:74 6:74 7:78 8:80 9:76 10:73 
2 0.7236815687483977 1:3 2:8 3:28 4:72 5:71 6:71 7:72 8:70 9:71 10:68 
2 2 1:4 2:10 3:12 4:72 5:75 6:70 7:76 8:78 9:74 10:72 
0 2 1:15 2:12 3:3 4:81 5:83 6:80 7:79 8:82 9:76 10:77 
1.577477571797786 2 1:8 2:7 3:34 4:72 5:70 6:71 7:77 8:80 9:76 10:73 
2 2 1:11 2:10 3:13 4:72 5:72 6:71 7:74 8:74 9:74 10:74 
1.318032339791708 0 1:9 2:11 3:23 4:85 5:83 6:83 7:72 8:72 9:71 10:68 
0 2 1:10 2:15 3:32 4:74 5:74 6:74 7:81 8:83 9:80 10:78 
2 2 1:7 2:11 3:28 4:74 5:73 6:74 7:72 8:70 9:71 10:68 
0.3811690911606616 2 1:6 2:9 3:27 4:72 5:71 6:71 7:76 8:78 9:77 10:72 
2 0.7607281251758428 1:8 2:7 3:34 4:76 5:78 6:77 7:77 8:80 9:76 10:73 
2 2 1:7 2:13 3:13 4:76 5:75 6:74 7:74 8:74 9:74 10:74 
2 0 1:7 2:9 3:18 4:76 5:78 6:74 7:72 8:71 9:71 10:71 
0 1.827834408951422 1:8 2:4 3:26 4:72 5:70 6:71 7:72 8:72 9:72 10:70 
1.575416242173932 0 1:8 2:5 3:14 4:72 5:72 6:71 7:72 8:75 9:70 10:68 
0.7607605635900822 2 1:6 2:11 3:3 4:79 5:81 6:76 7:79 8:82 9:76 10:77 
0.08514334207574167 2 1:12 2:11 3:4 4:81 5:83 6:80 7:85 8:83 9:83 10:82 
2 0.8206477161170554 1:7 2:9 3:18 4:77 5:80 6:76 7:72 8:71 9:71 10:71 
2 2 1:10 2:13 3:4 4:79 5:81 6:76 7:85 8:83 9:83 10:82 
2 2 1:8 2:8 3:3 4:72 5:70 6:71 7:79 8:82 9:76 10:77 
2 2 1:6 2:9 3:17 4:72 5:71 6:71 7:74 8:73 9:74 10:73 
0 2 1:9 2:4 3:22 4:72 5:72 6:71 7:78 8:80 9:76 10:73 
0 2 1:9 2:1 3:26 4:76 5:78 6:77 7:72 8:72 9:72 10:70 
0 2 1:5 2:11 3:9 4:79 5:82 6:76 7:75 8:72 9:75 10:75 
2 2 1:8 2:12 3:29 4:72 5:75 6:70 7:79 8:81 9:76 10:77 
2 2 1:6 2:10 3:5 4:72 5:71 6:71 7:76 8:76 9:74 10:73 
2 2 1:10 2:6 3:13 4:75 5:72 6:75 7:74 8:74 9:74 10:74 
0.4239364000030376 0 1:7 2:8 3:14 4:84 5:85 6:81 7:72 8:75 9:70 10:68 
2 2 1:11 2:7 3:3 4:76 5:78 6:77 7:79 8:82 9:76 10:77 
2 2 1:4 2:6 3:17 4:72 5:72 6:72 7:74 8:73 9:74 10:73 
2 2 1:11 2:4 3:2 4:72 5:72 6:71 7:76 8:75 9:74 10:73 
2 2 1:4 2:11 3:32 4:76 5:75 6:74 7:81 8:83 9:80 10:78 
2 2 1:12 2:10 3:4 4:76 5:78 6:77 7:85 8:83 9:83 10:82 
1.201882754130215 0 1:7 2:8 3:14 4:75 5:72 6:75 7:72 8:75 9:70 10:68 
2 2 1:9 2:7 3:26 4:76 5:78 6:74 7:72 8:72 9:72 10:70 
2 2 1:9 2:5 3:6 4:72 5:70 6:71 7:74 8:76 9:73 10:73 
2 2 1:7 2:4 3:13 4:72 5:71 6:71 7:74 8:74 9:74 10:74 
2 2 1:12 2:12 3:25 4:72 5:72 6:71 7:84 8:85 9:81 10:81 
2 2 1:4 2:9 3:12 4:76 5:75 6:74 7:76 8:78 9:74 10:72 
2 2 1:2 2:9 3:9 4:74 5:76 6:73 7:75 8:72 9:75 10:75 
1.661925964987053 2 1:4 2:9 3:34 4:74 5:74 6:74 7:77 8:80 9:76 10:73 
2 2 1:8 2:12 3:27 4:72 5:75 6:70 7:76 8:78 9:77 10:72 
2 2 1:10 2:10 3:3 4:72 5:72 6:72 7:79 8:82 9:76 10:77 
2 2 1:11 2:10 3:32 4:84 5:85 6:81 7:81 8:83 9:80 10:78 
2 2 1:6 2:6 3:22 4:75 5:72 6:75 7:78 8:80 9:76 10:73 
1.793493217646853 0 1:9 2:14 3:23 4:72 5:70 6:71 7:72 8:72 9:71 10:68 
2 2 1:6 2:10 3:4 4:77 5:80 6:76 7:85 8:83 9:83 10:82 
2 0.3390228390456977 1:6 2:13 3:26 4:74 5:74 6:74 7:72 8:72 9:72 10:70 
0 2 1:8 2:6 3:12 4:79 5:81 6:76 7:76 8:78 9:74 10:72 
2 2 1:5 2:8 3:3 4:76 5:78 6:74 7:79 8:82 9:76 10:77 
1.191266527926741 0 1:3 2:4 3:14 4:74 5:73 6:74 7:72 8:75 9:70 10:68 
0 2 1:13 2:6 3:22 4:72 5:71 6:71 7:78 8:80 9:76 10:73 
0.7278857623788397 0 1:15 2:7 3:12 4:84 5:85 6:81 7:76 8:78 9:74 10:72 
1.413092331103709 2 1:8 2:9 3:28 4:79 5:81 6:76 7:72 8:70 9:71 10:68 
2 2 1:8 2:8 3:2 4:76 5:78 6:77 7:76 8:75 9:74 10:73 
2 2 1:9 2:3 3:6 4:72 5:72 6:72 7:74 8:76 9:73 10:73 
2 2 1:12 2:6 3:23 4:77 5:80 6:76 7:72 8:72 9:71 10:68 
2 2 1:3 2:4 3:5 4:74 5:76 6:73 7:76 8:76 9:74 10:73 
2 0 1:5 2:12 3:26 4:78 5:80 6:76 7:72 8:72 9:72 10:70 
0 2 1:12 2:8 3:27 4:79 5:81 6:76 7:76 8:78 9:77 10:72 
0 2 1:10 2:12 3:32 4:74 5:73 6:74 7:81 8:83 9:80 10:78 
2 2 1:5 2:12 3:17 4:76 5:75 6:74 7:74 8:73 9:74 10:73 
2 2 1:6 2:9 3:13 4:74 5:76 6:73 7:74 8:74 9:74 10:74 
2 2 1:0 2:0 3:27 4:71 5:73 6:70 7:77 8:80 9:75 10:75 
0.4795519599395163 2 1:0 2:0 3:3 4:82 5:81 6:79 7:79 8:81 9:78 10:77 
0 1.442916393452864 1:0 2:0 3:13 4:80 5:83 6:75 7:76 8:76 9:74 10:77 
1.978879944557256 0.1604506729918811 1:0 2:0 3:17 4:74 5:74 6:73 7:74 8:76 9:75 10:70 
2 2 1:6 2:3 3:1 4:82 5:81 6:79 7:70 8:71 9:70 10:65 
2 2 1:1 2:2 3:5 4:75 5:75 6:73 7:75 8:80 9:72 10:71 
2 2 1:1 2:1 3:13 4:76 5:76 6:74 7:76 8:76 9:74 10:77 
2 2 1:2 2:1 3:17 4:74 5:76 6:73 7:74 8:76 9:75 10:70 
0.4513643231824218 0.5914626418618079 1:4 2:2 3:28 4:80 5:83 6:75 7:73 8:68 9:74 10:71 
2 0.988002749415298 1:5 2:7 3:29 4:84 5:83 6:83 7:80 8:83 9:75 10:79 
2 2 1:2 2:4 3:12 4:73 5:68 6:74 7:76 8:76 9:74 10:72 
2 0 1:2 2:5 3:23 4:79 5:81 6:78 7:74 8:76 9:73 10:69 
2 2 1:6 2:5 3:19 4:77 5:79 6:78 7:71 8:73 9:70 10:71 
2 2 1:2 2:3 3:22 4:77 5:80 6:75 7:75 8:72 9:75 10:68 
2 0 1:5 2:5 3:33 4:74 5:74 6:73 7:72 8:76 9:72 10:72 
0.9325124041099057 0 1:9 2:2 3:13 4:81 5:79 6:80 7:76 8:76 9:74 10:77 
2 2 1:5 2:7 3:29 4:77 5:80 6:75 7:80 8:83 9:75 10:79 
2 0 1:8 2:6 3:22 4:79 5:81 6:78 7:75 8:72 9:75 10:68 
0.7913332151729755 1.964503323370835 1:2 2:8 3:18 4:75 5:80 6:72 7:74 8:74 9:73 10:74 
2 2 1:7 2:5 3:9 4:76 5:76 6:74 7:75 8:75 9:73 10:74 
2 2 1:8 2:2 3:13 4:74 5:74 6:73 7:76 8:76 9:74 10:77 
0 2 1:6 2:15 3:34 4:75 5:72 6:75 7:77 8:79 9:78 10:75 
2 0.1166357272573916 1:8 2:5 3:33 4:74 5:76 6:73 7:72 8:76 9:72 10:72 
0 2 1:8 2:1 3:17 4:77 5:80 6:75 7:74 8:76 9:75 10:70 
1.778004289371929 2 1:13 2:16 3:25 4:76 5:76 6:74 7:82 8:81 9:79 10:79 
2 2 1:12 2:16 3:4 4:77 5:79 6:78 7:84 8:83 9:83 10:84 
0 2 1:5 2:8 3:22 4:70 5:71 6:70 7:75 8:72 9:75 10:68 
0 2 1:5 2:6 3:28 4:71 5:73 6:70 7:73 8:68 9:74 10:71 
2 2 1:10 2:4 3:13 4:74 5:76 6:73 7:76 8:76 9:74 10:77 
2 2 1:6 2:15 3:32 4:80 5:83 6:75 7:81 8:79 9:80 10:80 
0 2 1:10 2:15 3:34 4:77 5:80 6:75 7:77 8:79 9:78 10:75 
2 0 1:15 2:6 3:29 4:79 5:81 6:78 7:80 8:83 9:75 10:79 
0 0.5284701134268007 1:4 2:8 3:2 4:76 5:76 6:74 7:72 8:72 9:71 10:70 
1.743205107801175 2 1:6 2:15 3:25 4:80 5:83 6:75 7:82 8:81 9:79 10:79 
0.6931910939434455 2 1:5 2:4 3:28 4:72 5:72 6:71 7:73 8:68 9:74 10:71 
2 0 1:13 2:6 3:5 4:84 5:83 6:83 7:75 8:80 9:72 10:71 
1.851586564729945 2 1:0 2:7 3:1 4:74 5:76 6:75 7:70 8:71 9:70 10:65 
2 2 1:9 2:13 3:4 4:76 5:76 6:74 7:84 8:83 9:83 10:84 
0 2 1:9 2:8 3:19 4:81 5:79 6:80 7:71 8:73 9:70 10:71 
2 2 1:6 2:12 3:27 4:75 5:80 6:72 7:77 8:80 9:75 10:75 
1.426327770548314 2 1:1 2:7 3:22 4:73 5:68 6:74 7:75 8:72 9:75 10:68 
2 2 1:5 2:3 3:17 4:72 5:76 6:72 7:74 8:76 9:75 10:70 
0.1141492244566847 2 1:12 2:9 3:29 4:77 5:79 6:78 7:80 8:83 9:75 10:79 
2 2 1:3 2:6 3:5 4:74 5:76 6:75 7:75 8:80 9:72 10:71 
0 2 1:12 2:9 3:32 4:74 5:76 6:73 7:81 8:79 9:80 10:80 
0.3193388413753955 0 1:10 2:12 3:23 4:82 5:81 6:79 7:74 8:76 9:73 10:69 
2 2 1:5 2:9 3:29 4:70 5:71 6:70 7:80 8:83 9:75 10:79 
2 2 1:4 2:7 3:27 4:73 5:68 6:74 7:77 8:80 9:75 10:75 
2 2 1:8 2:13 3:34 4:72 5:76 6:72 7:77 8:79 9:78 10:75 
0 2 1:13 2:13 3:13 4:79 5:81 6:78 7:76 8:76 9:74 10:77 
2 0 1:11 2:5 3:9 4:84 5:83 6:83 7:75 8:75 9:73 10:74 
1.098328142030672 0 1:11 2:6 3:18 4:74 5:76 6:73 7:74 8:74 9:73 10:74 
2 2 1:6 2:6 3:19 4:80 5:83 6:75 7:71 8:73 9:70 10:71 
0 2 1:5 2:11 3:33 4:70 5:71 6:70 7:72 8:76 9:72 10:72 
0 1.578773337908664 1:10 2:6 3:17 4:76 5:76 6:74 7:74 8:76 9:75 10:70 
2 2 1:6 2:8 3:1 4:75 5:80 6:72 7:70 8:71 9:70 10:65 
2 2 1:3 2:11 3:23 4:71 5:73 6:70 7:74 8:76 9:73 10:69 
2 2 1:7 2:10 3:23 4:80 5:83 6:75 7:74 8:76 9:73 10:69 
2 0 1:4 2:5 3:18 4:75 5:72 6:75 7:74 8:74 9:73 10:74 
0.4698505615521748 1.528655699871314 1:14 2:8 3:34 4:76 5:76 6:74 7:77 8:79 9:78 10:75 
2 2 1:6 2:7 3:22 4:71 5:73 6:70 7:75 8:72 9:75 10:68 
0.003289388559374377 0 1:16 2:4 3:27 4:82 5:81 6:79 7:77 8:80 9:75 10:75 
0 2 1:7 2:10 3:5 4:80 5:83 6:75 7:75 8:80 9:72 10:71 
2 2 1:6 2:10 3:29 4:72 5:72 6:71 7:80 8:83 9:75 10:79 
2 0 1:13 2:3 3:32 4:79 5:81 6:78 7:81 8:79 9:80 10:80 
0 2 1:7 2:7 3:13 4:75 5:80 6:72 7:76 8:76 9:74 10:77 
2 2 1:8 2:14 3:12 4:70 5:71 6:70 7:76 8:76 9:74 10:72 
0.8033082056437815 2 1:8 2:9 3:28 4:72 5:76 6:72 7:73 8:68 9:74 10:71 
2 2 1:6 2:10 3:29 4:76 5:76 6:74 7:80 8:83 9:75 10:79 
0.462498249059598 2 1:7 2:3 3:32 4:77 5:79 6:78 7:81 8:79 9:80 10:80 
2 2 1:10 2:4 3:9 4:70 5:71 6:70 7:75 8:75 9:73 10:74 
2 2 1:11 2:11 3:12 4:72 5:76 6:72 7:76 8:76 9:74 10:72 
2 0 1:4 2:8 3:19 4:77 5:80 6:75 7:71 8:73 9:70 10:71 
1.817881100906149 0 1:4 2:11 3:33 4:75 5:75 6:73 7:72 8:76 9:72 10:72 
2 2 1:3 2:10 3:3 4:74 5:74 6:73 7:79 8:81 9:78 10:77 
2 2 1:10 2:18 3:25 4:70 5:71 6:70 7:82 8:81 9:79 10:79 
0 2 1:5 2:6 3:17 4:72 5:72 6:71 7:74 8:76 9:75 10:70 
1.78843545626688 2 1:6 2:9 3:27 4:75 5:72 6:75 7:77 8:80 9:75 10:75 
2 2 1:7 2:15 3:25 4:75 5:80 6:72 7:82 8:81 9:79 10:79 
2 2 1:5 2:7 3:9 4:73 5:68 6:74 7:75 8:75 9:73 10:74 
2 2 1:6 2:6 3:22 4:74 5:76 6:75 7:75 8:72 9:75 10:68 
1.54643888570914 2 1:7 2:3 3:12 4:75 5:75 6:73 7:76 8:76 9:74 10:72 
2 2 1:6 2:7 3:3 4:75 5:72 6:75 7:79 8:81 9:78 10:77 
2 2 1:4 2:14 3:4 4:79 5:81 6:78 7:84 8:83 9:83 10:84 
0 2 1:10 2:13 3:29 4:75 5:75 6:73 7:80 8:83 9:75 10:79 
2 2 1:3 2:8 3:32 4:76 5:76 6:74 7:81 8:79 9:80 10:80 
2 2 1:8 2:1 3:19 4:75 5:80 6:72 7:71 8:73 9:70 10:71 
2 2 1:8 2:7 3:27 4:74 5:76 6:75 7:77 8:80 9:75 10:75 
2 2 1:4 2:7 3:3 4:77 5:80 6:75 7:79 8:81 9:78 10:77 
2 2 1:8 2:4 3:33 4:72 5:72 6:71 7:72 8:76 9:72 10:72 
2 2 1:8 2:7 3:28 4:74 5:74 6:73 7:73 8:68 9:74 10:71 
2 0 1:7 2:11 3:1 4:75 5:72 6:75 7:70 8:71 9:70 10:65 
2 2 1:9 2:10 3:5 4:74 5:76 6:73 7:75 8:80 9:72 10:71 
0 2 1:11 2:9 3:25 4:75 5:75 6:73 7:82 8:81 9:79 10:79 
2 0 1:7 2:1 3:19 4:73 5:68 6:74 7:71 8:73 9:70 10:71 
1.275021590243263 2 1:6 2:8 3:18 4:76 5:76 6:74 7:74 8:74 9:73 10:74 
2 2 1:9 2:11 3:23 4:76 5:76 6:74 7:74 8:76 9:73 10:69 
2 0 1:12 2:6 3:27 4:77 5:79 6:78 7:77 8:80 9:75 10:75 
2 2 1:7 2:11 3:9 4:74 5:74 6:73 7:75 8:75 9:73 10:74 
2 2 1:13 2:12 3:13 4:72 5:72 6:71 7:76 8:76 9:74 10:77 
2 2 1:0 2:6 3:12 4:71 5:73 6:70 7:76 8:76 9:74 10:72 
2 2 1:10 2:10 3:28 4:74 5:76 6:73 7:73 8:68 9:74 10:71 
2 2 1:10 2:10 3:4 4:75 5:80 6:72 7:84 8:83 9:83 10:84 
2 2 1:14 2:9 3:3 4:77 5:79 6:78 7:79 8:81 9:78 10:77 
2 2 1:10 2:3 3:19 4:75 5:75 6:73 7:71 8:73 9:70 10:71 
0 2 1:6 2:12 3:29 4:82 5:81 6:79 7:80 8:83 9:75 10:79 
0 2 1:6 2:6 3:17 4:70 5:71 6:70 7:74 8:76 9:75 10:70 
2 2 1:5 2:4 3:27 4:72 5:76 6:72 7:77 8:80 9:75 10:75 
2 2 1:11 2:6 3:12 4:72 5:72 6:71 7:76 8:76 9:74 10:72 
0.2387316011959959 2 1:9 2:6 3:1 4:79 5:81 6:78 7:70 8:71 9:70 10:65 
1.781826246584529 2 1:3 2:5 3:32 4:71 5:73 6:70 7:81 8:79 9:80 10:80 
0 0.4451380578450649 1:9 2:16 3:34 4:80 5:83 6:75 7:77 8:79 9:78 10:75 
0 2 1:10 2:6 3:19 4:82 5:81 6:79 7:71 8:73 9:70 10:71 
2 2 1:6 2:13 3:34 4:70 5:71 6:70 7:77 8:79 9:78 10:75 
0 2 1:13 2:4 3:32 4:72 5:72 6:71 7:81 8:79 9:80 10:80 
2 2 1:3 2:8 3:13 4:74 5:76 6:75 7:76 8:76 9:74 10:77 
2 2 1:15 2:7 3:4 4:75 5:75 6:73 7:84 8:83 9:83 10:84 
0.7162080825904102 2 1:8 2:6 3:17 4:73 5:68 6:74 7:74 8:76 9:75 10:70 
2 2 1:10 2:9 3:23 4:74 5:74 6:73 7:74 8:76 9:73 10:69 
0.8784430733100177 0 1:8 2:11 3:1 4:72 5:76 6:72 7:70 8:71 9:70 10:65 
0 2 1:6 2:15 3:9 4:77 5:80 6:75 7:75 8:75 9:73 10:74 
2 0 1:6 2:6 3:32 4:84 5:83 6:83 7:81 8:79 9:80 10:80 
2 2 1:9 2:7 3:19 4:74 5:76 6:73 7:71 8:73 9:70 10:71 
0 2 1:3 2:10 3:1 4:76 5:76 6:74 7:70 8:71 9:70 10:65 
1.252363697272351 0.1348463410051446 1:13 2:6 3:22 4:74 5:74 6:73 7:75 8:72 9:75 10:68 
0 2 1:16 2:6 3:4 4:82 5:81 6:79 7:84 8:83 9:83 10:84 
0 2 1:3 2:8 3:27 4:81 5:79 6:80 7:77 8:80 9:75 10:75 
0 2 1:11 2:15 3:9 4:79 5:81 6:78 7:75 8:75 9:73 10:74 
2 2 1:15 2:9 3:27 4:74 5:74 6:73 7:77 8:80 9:75 10:75 
2 2 1:7 2:6 3:22 4:74 5:76 6:73 7:75 8:72 9:75 10:68 
2 2 1:9 2:11 3:3 4:81 5:79 6:80 7:79 8:81 9:78 10:77 
2 2 1:0 2:0 3:33 4:75 5:72 6:71 7:73 8:73 9:72 10:72 
1.782181813520532 2 1:0 2:0 3:25 4:75 5:72 6:73 7:83 8:81 9:81 10:79 
2 2 1:0 2:0 3:4 4:70 5:71 6:70 7:84 8:76 9:77 10:81 
0 0.2442098096446526 1:1 2:0 3:30 4:79 5:82 6:76 7:68 8:65 9:65 10:63 
2 2 1:0 2:3 3:3 4:73 5:73 6:72 7:79 8:79 9:74 10:74 
1.821690064105718 0.346619658768948 1:3 2:3 3:28 4:79 5:79 6:74 7:73 8:72 9:67 10:68 
0.9119120671647185 2 1:1 2:3 3:33 4:73 5:66 6:69 7:73 8:73 9:72 10:72 
0 2 1:4 2:1 3:20 4:74 5:73 6:72 7:70 8:69 9:67 10:65 
0.8046756470039932 0 1:7 2:2 3:23 4:79 5:78 6:79 7:75 8:67 9:70 10:69 
2 2 1:2 2:3 3:21 4:75 5:76 6:73 7:70 8:71 9:70 10:68 
2 2 1:3 2:7 3:1 4:73 5:73 6:72 7:74 8:73 9:72 10:67 
0.3495199536547453 2 1:1 2:6 3:33 4:70 5:69 6:67 7:73 8:73 9:72 10:72 
2 0 1:7 2:4 3:28 4:74 5:73 6:72 7:73 8:72 9:67 10:68 
2 0 1:10 2:5 3:9 4:80 5:80 6:78 7:75 8:72 9:73 10:68 
2 2 1:10 2:9 3:3 4:84 5:76 6:77 7:79 8:79 9:74 10:74 
0.06007745935030463 0 1:13 2:2 3:5 4:79 5:78 6:79 7:75 8:75 9:70 10:68 
0 1.746752183604615 1:5 2:4 3:21 4:75 5:72 6:73 7:70 8:71 9:70 10:68 
2 2 1:11 2:5 3:2 4:79 5:82 6:76 7:73 8:66 9:69 10:67 
2 2 1:2 2:8 3:18 4:75 5:75 6:70 7:75 8:76 9:73 10:74 
0.6207865808900201 2 1:3 2:4 3:22 4:68 5:65 6:65 7:73 8:73 9:69 10:69 
2 2 1:7 2:9 3:13 4:70 5:69 6:67 7:76 8:75 9:73 10:74 
0 1.222622799872335 1:16 2:4 3:21 4:80 5:80 6:78 7:70 8:71 9:70 10:68 
2 0 1:6 2:7 3:33 4:76 5:75 6:73 7:73 8:73 9:72 10:72 
1.079007944556152 2 1:1 2:5 3:23 4:70 5:71 6:70 7:75 8:67 9:70 10:69 
0 0.4756538870664723 1:16 2:5 3:2 4:83 5:81 6:81 7:73 8:66 9:69 10:67 
0 2 1:7 2:10 3:18 4:79 5:79 6:74 7:75 8:76 9:73 10:74 
2 0 1:3 2:2 3:22 4:75 5:72 6:71 7:73 8:73 9:69 10:69 
0 0.7790502132365784 1:9 2:4 3:21 4:68 5:65 6:65 7:70 8:71 9:70 10:68 
2 2 1:4 2:13 3:29 4:73 5:73 6:72 7:79 8:82 9:76 10:75 
0.4265374050790139 0 1:18 2:7 3:33 4:84 5:76 6:77 7:73 8:73 9:72 10:72 
0 0.9076705593955244 1:14 2:12 3:20 4:83 5:81 6:81 7:70 8:69 9:67 10:65 
1.891301298228157 0 1:7 2:12 3:30 4:75 5:67 6:70 7:68 8:65 9:65 10:63 
0 2 1:12 2:4 3:28 4:79 5:82 6:76 7:73 8:72 9:67 10:68 
2 0 1:14 2:5 3:1 4:79 5:78 6:79 7:74 8:73 9:72 10:67 
2 2 1:4 2:14 3:25 4:73 5:73 6:72 7:83 8:81 9:81 10:79 
2 2 1:1 2:2 3:22 4:73 5:66 6:69 7:73 8:73 9:69 10:69 
0.2690284432992121 2 1:9 2:10 3:23 4:75 5:75 6:70 7:75 8:67 9:70 10:69 
2 2 1:5 2:7 3:18 4:74 5:73 6:72 7:75 8:76 9:73 10:74 
1.999841076021922 0 1:10 2:4 3:2 4:75 5:72 6:73 7:73 8:66 9:69 10:67 
2 2 1:1 2:5 3:1 4:73 5:73 6:69 7:74 8:73 9:72 10:67 
2 2 1:10 2:5 3:12 4:75 5:67 6:70 7:75 8:72 9:71 10:72 
2 2 1:5 2:13 3:25 4:76 5:75 6:73 7:83 8:81 9:81 10:79 
2 0 1:9 2:10 3:23 4:79 5:79 6:74 7:75 8:67 9:70 10:69 
2 2 1:8 2:4 3:22 4:70 5:69 6:67 7:73 8:73 9:69 10:69 
2 2 1:10 2:5 3:18 4:73 5:73 6:72 7:75 8:76 9:73 10:74 
0 2 1:12 2:8 3:20 4:75 5:72 6:73 7:70 8:69 9:67 10:65 
2 2 1:7 2:4 3:1 4:70 5:71 6:70 7:74 8:73 9:72 10:67 
1.433161433253136 2 1:16 2:7 3:25 4:84 5:76 6:77 7:83 8:81 9:81 10:79 
2 0 1:7 2:4 3:12 4:80 5:80 6:78 7:75 8:72 9:71 10:72 
1.665674552179672 2 1:6 2:2 3:18 4:76 5:75 6:73 7:75 8:76 9:73 10:74 
2 2 1:4 2:5 3:22 4:73 5:72 6:67 7:73 8:73 9:69 10:69 
2 2 1:13 2:15 3:9 4:73 5:73 6:72 7:75 8:72 9:73 10:68 
2 2 1:6 2:10 3:32 4:83 5:81 6:81 7:80 8:80 9:78 10:76 
1.277292899529664 0 1:12 2:6 3:28 4:75 5:72 6:73 7:73 8:72 9:67 10:68 
2 2 1:6 2:4 3:1 4:68 5:65 6:65 7:74 8:73 9:72 10:67 
2 2 1:7 2:13 3:33 4:70 5:71 6:70 7:73 8:73 9:72 10:72 
2 2 1:5 2:8 3:13 4:73 5:73 6:69 7:76 8:75 9:73 10:74 
2 2 1:7 2:16 3:3 4:80 5:80 6:78 7:79 8:79 9:74 10:74 
2 1.444608471290413 1:6 2:10 3:21 4:73 5:72 6:67 7:70 8:71 9:70 10:68 
2 0 1:6 2:5 3:34 4:83 5:81 6:81 7:79 8:78 9:79 10:76 
2 2 1:4 2:7 3:5 4:74 5:73 6:72 7:75 8:75 9:70 10:68 
0.7030975641533342 2 1:6 2:10 3:33 4:68 5:65 6:65 7:73 8:73 9:72 10:72 
2 2 1:7 2:8 3:13 4:70 5:71 6:70 7:76 8:75 9:73 10:74 
1.839084427724026 2 1:11 2:9 3:21 4:79 5:82 6:76 7:70 8:71 9:70 10:68 
0 2 1:14 2:10 3:32 4:73 5:66 6:69 7:80 8:80 9:78 10:76 
0 2 1:4 2:6 3:30 4:76 5:75 6:73 7:68 8:65 9:65 10:63 
0 2 1:13 2:4 3:5 4:73 5:72 6:67 7:75 8:75 9:70 10:68 
2 2 1:1 2:7 3:32 4:75 5:76 6:73 7:80 8:80 9:78 10:76 
0.9320797680804406 0 1:12 2:9 3:9 4:83 5:81 6:81 7:75 8:72 9:73 10:68 
2 1.050525420888478 1:13 2:14 3:20 4:73 5:66 6:69 7:70 8:69 9:67 10:65 
0 2 1:6 2:5 3:34 4:75 5:72 6:73 7:79 8:78 9:79 10:76 
1.739882503265791 2 1:6 2:11 3:29 4:68 5:65 6:65 7:79 8:82 9:76 10:75 
2 2 1:5 2:4 3:18 4:73 5:73 6:69 7:75 8:76 9:73 10:74 
1.528333063003022 0 1:18 2:11 3:23 4:83 5:81 6:81 7:75 8:67 9:70 10:69 
2 0.8134303414677403 1:11 2:8 3:1 4:70 5:69 6:67 7:74 8:73 9:72 10:67 
0 2 1:8 2:7 3:32 4:73 5:73 6:69 7:80 8:80 9:78 10:76 
1.823071929542039 2 1:5 2:6 3:21 4:79 5:78 6:79 7:70 8:71 9:70 10:68 
2 0 1:8 2:7 3:33 4:74 5:73 6:72 7:73 8:73 9:72 10:72 
0 2 1:9 2:6 3:3 4:79 5:82 6:76 7:79 8:79 9:74 10:74 
0.1541613816099332 0.0798689528570837 1:9 2:6 3:30 4:79 5:78 6:79 7:68 8:65 9:65 10:63 
2 2 1:7 2:8 3:23 4:75 5:76 6:73 7:75 8:67 9:70 10:69 
0 2 1:8 2:3 3:21 4:73 5:73 6:69 7:70 8:71 9:70 10:68 
2 2 1:6 2:13 3:4 4:79 5:79 6:74 7:84 8:76 9:77 10:81 
2 2 1:8 2:7 3:13 4:74 5:73 6:72 7:76 8:75 9:73 10:74 
0.02396733566045498 0 1:10 2:5 3:2 4:84 5:76 6:77 7:73 8:66 9:69 10:67 
0.8018521246867991 2 1:9 2:5 3:23 4:75 5:72 6:73 7:75 8:67 9:70 10:69 
1.988858522660278 2 1:0 2:5 3:32 4:70 5:71 6:70 7:80 8:80 9:78 10:76 
0 2 1:8 2:11 3:34 4:79 5:79 6:74 7:79 8:78 9:79 10:76 
1.235229902114671 2 1:6 2:12 3:9 4:68 5:65 6:65 7:75 8:72 9:73 10:68 
0.7139790773737067 0 1:2 2:3 3:21 4:75 5:67 6:70 7:70 8:71 9:70 10:68 
2 2 1:12 2:4 3:13 4:73 5:73 6:72 7:76 8:75 9:73 10:74 
1.115069850357704 0 1:13 2:12 3:33 4:79 5:82 6:76 7:73 8:73 9:72 10:72 
0 1.894743429017688 1:11 2:2 3:2 4:79 5:78 6:79 7:73 8:66 9:69 10:67 
0 2 1:10 2:11 3:20 4:84 5:76 6:77 7:70 8:69 9:67 10:65 
2 0 1:3 2:6 3:28 4:76 5:75 6:73 7:73 8:72 9:67 10:68 
2 2 1:12 2:11 3:3 4:75 5:76 6:73 7:79 8:79 9:74 10:74 
0 1.711579510142853 1:3 2:6 3:30 4:70 5:71 6:70 7:68 8:65 9:65 10:63 
2 2 1:2 2:14 3:18 4:73 5:66 6:69 7:75 8:76 9:73 10:74 
2 2 1:7 2:11 3:34 4:74 5:73 6:72 7:79 8:78 9:79 10:76 
2 2 1:4 2:9 3:9 4:75 5:72 6:71 7:75 8:72 9:73 10:68 
0 0.2227608370440236 1:11 2:7 3:1 4:75 5:76 6:73 7:74 8:73 9:72 10:67 
1.613686168529838 0 1:11 2:4 3:2 4:73 5:73 6:69 7:73 8:66 9:69 10:67 
0 2 1:10 2:8 3:21 4:79 5:79 6:74 7:70 8:71 9:70 10:68 
0 2 1:8 2:6 3:30 4:75 5:75 6:70 7:68 8:65 9:65 10:63 
2 1.911696144435609 1:6 2:11 3:22 4:74 5:73 6:72 7:73 8:73 9:69 10:69 
0 2 1:10 2:13 3:29 4:80 5:80 6:78 7:79 8:82 9:76 10:75 
2 0 1:16 2:6 3:13 4:83 5:81 6:81 7:76 8:75 9:73 10:74 
2 2 1:7 2:6 3:1 4:75 5:72 6:73 7:74 8:73 9:72 10:67 
2 0 1:9 2:7 3:33 4:75 5:76 6:73 7:73 8:73 9:72 10:72 
2 2 1:6 2:10 3:3 4:75 5:67 6:70 7:79 8:79 9:74 10:74 
0 2 1:7 2:1 3:28 4:79 5:78 6:79 7:73 8:72 9:67 10:68 
1.940567976136444 2 1:6 2:5 3:21 4:74 5:73 6:72 7:70 8:71 9:70 10:68 
0.361223813265136 2 1:6 2:9 3:23 4:73 5:66 6:69 7:75 8:67 9:70 10:69 
0 2 1:11 2:9 3:5 4:75 5:72 6:71 7:75 8:75 9:70 10:68 
2 2 1:5 2:8 3:20 4:70 5:71 6:70 7:70 8:69 9:67 10:65 
0.3891557048580644 0 1:8 2:2 3:33 4:75 5:72 6:73 7:73 8:73 9:72 10:72 
2 2 1:13 2:16 3:32 4:75 5:72 6:71 7:80 8:80 9:78 10:76 
0 2 1:13 2:6 3:13 4:75 5:76 6:73 7:76 8:75 9:73 10:74 
2 2 1:10 2:7 3:5 4:73 5:66 6:69 7:75 8:75 9:70 10:68 
2 2 1:13 2:15 3:25 4:80 5:80 6:78 7:83 8:81 9:81 10:79 
0 1.075248256108152 1:12 2:16 3:12 4:79 5:79 6:74 7:75 8:72 9:71 10:72 
2 0 1:3 2:7 3:22 4:76 5:75 6:73 7:73 8:73 9:69 10:69 
0 2 1:8 2:6 3:23 4:70 5:69 6:67 7:75 8:67 9:70 10:69 
0 2 1:12 2:1 3:30 4:74 5:73 6:72 7:68 8:65 9:65 10:63 
2 2 1:8 2:12 3:25 4:79 5:78 6:79 7:83 8:81 9:81 10:79 
0 2 1:15 2:13 3:32 4:79 5:79 6:74 7:80 8:80 9:78 10:76 
0 2 1:6 2:12 3:1 4:75 5:75 6:70 7:74 8:73 9:72 10:67 
1.786738428832312 0.389585324690164 1:1 2:11 3:20 4:68 5:65 6:65 7:70 8:69 9:67 10:65 
2 2 1:13 2:14 3:4 4:75 5:76 6:73 7:84 8:76 9:77 10:81 
2 0.3342076270354335 1:5 2:3 3:28 4:70 5:71 6:70 7:73 8:72 9:67 10:68 
0.01723855129853001 1.791196861710738 1:3 2:3 3:33 4:75 5:67 6:70 7:73 8:73 9:72 10:72 
2 2 1:4 2:7 3:21 4:76 5:75 6:73 7:70 8:71 9:70 10:68 
0 0.341853815397832 1:7 2:14 3:9 4:79 5:82 6:76 7:75 8:72 9:73 10:68 
0 2 1:11 2:10 3:32 4:79 5:78 6:79 7:80 8:80 9:78 10:76 
0 2 1:15 2:8 3:20 4:75 5:72 6:71 7:70 8:69 9:67 10:65 
0.795168076022379 0.891907379240705 1:7 2:3 3:28 4:68 5:65 6:65 7:73 8:72 9:67 10:68 
2 2 1:5 2:6 3:25 4:73 5:73 6:69 7:83 8:81 9:81 10:79 
2 2 1:0 2:0 3:3 4:74 5:74 6:69 7:79 8:77 9:73 10:74 
2 2 1:0 2:0 3:29 4:80 5:79 6:77 7:79 8:74 9:77 10:73 
2 0.5829547470743963 1:0 2:0 3:35 4:73 5:71 6:71 7:72 8:69 9:66 10:67 
2 2 1:0 2:0 3:31 4:74 5:71 6:70 7:72 8:68 9:70 10:68 
0 2 1:0 2:0 3:12 4:75 5:67 6:71 7:75 8:75 9:70 10:65 
2 0 1:0 2:3 3:20 4:76 5:73 6:71 7:74 8:74 9:69 10:69 
2 2 1:0 2:1 3:22 4:72 5:68 6:70 7:74 8:71 9:72 10:72 
2 2 1:0 2:1 3:1 4:73 5:72 6:71 7:74 8:71 9:70 10:69 
1.823688977928647 2 1:6 2:2 3:34 4:75 5:67 6:71 7:78 8:79 9:77 10:76 
2 2 1:4 2:3 3:31 4:73 5:71 6:71 7:72 8:68 9:70 10:68 
2 2 1:1 2:3 3:13 4:74 5:71 6:70 7:75 8:76 9:73 10:74 
2 2 1:3 2:3 3:20 4:75 5:75 6:70 7:74 8:74 9:69 10:69 
2 2 1:3 2:9 3:2 4:72 5:68 6:70 7:75 8:67 9:71 10:68 
2 0 1:6 2:7 3:18 4:79 5:74 6:77 7:73 8:71 9:71 10:72 
2 2 1:3 2:7 3:32 4:75 5:76 6:73 7:80 8:79 9:77 10:75 
2 2 1:6 2:2 3:34 4:76 5:73 6:71 7:78 8:79 9:77 10:76 
0 2 1:7 2:4 3:33 4:73 5:71 6:71 7:74 8:71 9:72 10:72 
2 2 1:4 2:5 3:30 4:74 5:71 6:72 7:73 8:72 9:71 10:68 
2 2 1:4 2:6 3:13 4:74 5:71 6:70 7:75 8:76 9:73 10:74 
2 2 1:12 2:15 3:25 4:79 5:74 6:77 7:83 8:79 9:78 10:76 
2 0.1042755972063203 1:6 2:7 3:22 4:75 5:76 6:73 7:74 8:71 9:72 10:72 
2 0 1:3 2:7 3:27 4:79 5:77 6:73 7:74 8:71 9:70 10:69 
2 2 1:2 2:3 3:34 4:72 5:69 6:66 7:78 8:79 9:77 10:76 
2 2 1:8 2:6 3:31 4:75 5:75 6:70 7:72 8:68 9:70 10:68 
2 2 1:12 2:15 3:29 4:76 5:73 6:71 7:79 8:74 9:77 10:73 
2 2 1:10 2:9 3:13 4:73 5:71 6:71 7:75 8:76 9:73 10:74 
2 2 1:7 2:6 3:3 4:74 5:71 6:72 7:79 8:77 9:73 10:74 
2 2 1:4 2:15 3:9 4:74 5:71 6:72 7:76 8:73 9:71 10:70 
2 0 1:6 2:7 3:2 4:75 5:76 6:73 7:75 8:67 9:71 10:68 
2 0 1:2 2:1 3:20 4:78 5:79 6:77 7:74 8:74 9:69 10:69 
0 2 1:5 2:8 3:1 4:74 5:71 6:70 7:74 8:71 9:70 10:69 
0 0.4948013426646837 1:4 2:6 3:31 4:78 5:79 6:77 7:72 8:68 9:70 10:68 
2 2 1:4 2:6 3:3 4:75 5:67 6:71 7:79 8:77 9:73 10:74 
2 1.979191277758654 1:10 2:6 3:23 4:73 5:71 6:71 7:75 8:69 9:70 10:67 
2 2 1:5 2:11 3:22 4:74 5:71 6:70 7:74 8:71 9:72 10:72 
2 0 1:11 2:8 3:27 4:80 5:79 6:77 7:74 8:71 9:70 10:69 
2 0 1:9 2:10 3:12 4:73 5:72 6:71 7:75 8:75 9:70 10:65 
2 2 1:13 2:5 3:3 4:76 5:73 6:71 7:79 8:77 9:73 10:74 
2 2 1:12 2:10 3:34 4:73 5:72 6:71 7:78 8:79 9:77 10:76 
0.8251924791591591 1.127613763382467 1:9 2:6 3:35 4:75 5:76 6:73 7:72 8:69 9:66 10:67 
2 2 1:4 2:6 3:12 4:79 5:77 6:73 7:75 8:75 9:70 10:65 
0 2 1:12 2:13 3:25 4:84 5:75 6:76 7:83 8:79 9:78 10:76 
1.399518624966057 2 1:5 2:12 3:30 4:72 5:68 6:70 7:73 8:72 9:71 10:68 
0 2 1:9 2:9 3:13 4:78 5:79 6:77 7:75 8:76 9:73 10:74 
0 2 1:11 2:5 3:27 4:73 5:71 6:71 7:74 8:71 9:70 10:69 
1.523305622375532 2 1:9 2:8 3:31 4:75 5:76 6:73 7:72 8:68 9:70 10:68 
0.5397042008695961 0 1:4 2:2 3:35 4:75 5:69 6:70 7:72 8:69 9:66 10:67 
2 2 1:5 2:8 3:30 4:74 5:71 6:72 7:73 8:72 9:71 10:68 
2 1.579346898311456 1:12 2:6 3:23 4:78 5:79 6:77 7:75 8:69 9:70 10:67 
1.650513423436441 2 1:1 2:4 3:1 4:75 5:75 6:70 7:74 8:71 9:70 10:69 
2 2 1:13 2:5 3:22 4:75 5:67 6:71 7:74 8:71 9:72 10:72 
2 0 1:12 2:7 3:33 4:75 5:76 6:73 7:74 8:71 9:72 10:72 
0 2 1:7 2:11 3:29 4:79 5:77 6:73 7:79 8:74 9:77 10:73 
2 0 1:4 2:2 3:35 4:74 5:71 6:70 7:72 8:69 9:66 10:67 
2 1.494750536764272 1:11 2:3 3:12 4:80 5:79 6:77 7:75 8:75 9:70 10:65 
1.585384652925133 0 1:10 2:13 3:2 4:73 5:71 6:71 7:75 8:67 9:71 10:68 
2 2 1:5 2:15 3:13 4:73 5:72 6:71 7:75 8:76 9:73 10:74 
2 2 1:3 2:2 3:27 4:75 5:75 6:70 7:74 8:71 9:70 10:69 
2 2 1:9 2:5 3:22 4:76 5:73 6:71 7:74 8:71 9:72 10:72 
1.988126374549962 0 1:13 2:13 3:18 4:83 5:79 6:78 7:73 8:71 9:71 10:72 
2 2 1:8 2:12 3:13 4:74 5:74 6:69 7:75 8:76 9:73 10:74 
2 2 1:13 2:7 3:30 4:79 5:77 6:73 7:73 8:72 9:71 10:68 
2 0 1:5 2:6 3:12 4:74 5:71 6:72 7:75 8:75 9:70 10:65 
2 2 1:10 2:9 3:9 4:73 5:71 6:71 7:76 8:73 9:71 10:70 
2 2 1:10 2:13 3:25 4:75 5:67 6:71 7:83 8:79 9:78 10:76 
2 2 1:9 2:13 3:3 4:75 5:76 6:73 7:79 8:77 9:73 10:74 
0.9226973626589019 0 1:13 2:10 3:20 4:83 5:79 6:78 7:74 8:74 9:69 10:69 
0 2 1:6 2:11 3:32 4:79 5:74 6:77 7:80 8:79 9:77 10:75 
0 2 1:1 2:10 3:18 4:72 5:69 6:66 7:73 8:71 9:71 10:72 
2 2 1:7 2:8 3:34 4:73 5:71 6:71 7:78 8:79 9:77 10:76 
0 2 1:5 2:6 3:29 4:74 5:71 6:70 7:79 8:74 9:77 10:73 
2 2 1:6 2:4 3:30 4:74 5:71 6:70 7:73 8:72 9:71 10:68 
0 1.274173896795693 1:16 2:10 3:13 4:84 5:75 6:76 7:75 8:76 9:73 10:74 
0 2 1:7 2:8 3:9 4:75 5:75 6:70 7:76 8:73 9:71 10:70 
2 0 1:5 2:7 3:2 4:78 5:79 6:77 7:75 8:67 9:71 10:68 
0 2 1:2 2:10 3:18 4:72 5:68 6:70 7:73 8:71 9:71 10:72 
0 2 1:6 2:13 3:22 4:79 5:74 6:77 7:74 8:71 9:72 10:72 
2 2 1:10 2:16 3:4 4:79 5:77 6:73 7:84 8:75 9:76 10:75 
2 0.3755662991243484 1:11 2:10 3:12 4:74 5:74 6:69 7:75 8:75 9:70 10:65 
1.901148329149837 0 1:7 2:4 3:35 4:76 5:73 6:71 7:72 8:69 9:66 10:67 
2 2 1:7 2:10 3:3 4:74 5:71 6:70 7:79 8:77 9:73 10:74 
2 2 1:4 2:13 3:22 4:73 5:72 6:71 7:74 8:71 9:72 10:72 
2 2 1:7 2:11 3:32 4:79 5:77 6:73 7:80 8:79 9:77 10:75 
0 1.905885838105468 1:15 2:13 3:20 4:84 5:75 6:76 7:74 8:74 9:69 10:69 
0 0.7728267428269001 1:18 2:13 3:29 4:83 5:79 6:78 7:79 8:74 9:77 10:73 
1.402494881319385 0 1:7 2:3 3:33 4:75 5:67 6:71 7:74 8:71 9:72 10:72 
2 2 1:7 2:7 3:30 4:73 5:71 6:71 7:73 8:72 9:71 10:68 
1.833526569980865 2 1:7 2:7 3:35 4:78 5:79 6:77 7:72 8:69 9:66 10:67 
0 0.06321748890405919 1:3 2:8 3:12 4:72 5:68 6:70 7:75 8:75 9:70 10:65 
2 0 1:8 2:8 3:22 4:79 5:77 6:73 7:74 8:71 9:72 10:72 
2 2 1:12 2:10 3:20 4:74 5:71 6:70 7:74 8:74 9:69 10:69 
2 2 1:5 2:8 3:29 4:75 5:75 6:70 7:79 8:74 9:77 10:73 
2 2 1:9 2:11 3:3 4:73 5:71 6:71 7:79 8:77 9:73 10:74 
2 2 1:4 2:6 3:31 4:72 5:69 6:66 7:72 8:68 9:70 10:68 
2 2 1:7 2:10 3:34 4:74 5:74 6:69 7:78 8:79 9:77 10:76 
2 2 1:11 2:6 3:27 4:74 5:71 6:70 7:74 8:71 9:70 10:69 
2 0.5936867457551402 1:8 2:9 3:20 4:80 5:79 6:77 7:74 8:74 9:69 10:69 
2 2 1:8 2:7 3:9 4:73 5:72 6:71 7:76 8:73 9:71 10:70 
0.8011393124369509 0 1:13 2:2 3:22 4:84 5:75 6:76 7:74 8:71 9:72 10:72 
2 2 1:2 2:13 3:1 4:74 5:71 6:72 7:74 8:71 9:70 10:69 
2 2 1:5 2:10 3:32 4:74 5:71 6:70 7:80 8:79 9:77 10:75 
0 2 1:8 2:6 3:29 4:78 5:79 6:77 7:79 8:74 9:77 10:73 
2 2 1:8 2:5 3:33 4:72 5:69 6:66 7:74 8:71 9:72 10:72 
1.319063445065373 2 1:18 2:10 3:3 4:83 5:79 6:78 7:79 8:77 9:73 10:74 
2 0 1:9 2:6 3:23 4:75 5:67 6:71 7:75 8:69 9:70 10:67 
2 0 1:3 2:5 3:31 4:79 5:74 6:77 7:72 8:68 9:70 10:68 
2 0 1:7 2:4 3:22 4:80 5:79 6:77 7:74 8:71 9:72 10:72 
2 0 1:8 2:4 3:20 4:74 5:71 6:70 7:74 8:74 9:69 10:69 
2 1.375573035949953 1:11 2:6 3:30 4:78 5:79 6:77 7:73 8:72 9:71 10:68 
2 2 1:7 2:10 3:3 4:75 5:75 6:70 7:79 8:77 9:73 10:74 
2 2 1:8 2:8 3:1 4:75 5:67 6:71 7:74 8:71 9:70 10:69 
2 2 1:8 2:10 3:32 4:73 5:71 6:71 7:80 8:79 9:77 10:75 
2 2 1:4 2:8 3:27 4:74 5:71 6:72 7:74 8:71 9:70 10:69 
1.422979772135553 2 1:5 2:8 3:29 4:74 5:71 6:72 7:79 8:74 9:77 10:73 
2 2 1:11 2:13 3:34 4:75 5:76 6:73 7:78 8:79 9:77 10:76 
0 2 1:6 2:9 3:12 4:75 5:69 6:70 7:75 8:75 9:70 10:65 
0.6547577661272744 0 1:9 2:8 3:2 4:80 5:79 6:77 7:75 8:67 9:71 10:68 
2 2 1:6 2:11 3:13 4:72 5:68 6:70 7:75 8:76 9:73 10:74 
0.2075906671623786 2 1:10 2:6 3:3 4:78 5:79 6:77 7:79 8:77 9:73 10:74 
0 2 1:9 2:7 3:22 4:73 5:71 6:71 7:74 8:71 9:72 10:72 
0 2 1:10 2:10 3:29 4:75 5:76 6:73 7:79 8:74 9:77 10:73 
0 1.183779898361316 1:16 2:9 3:35 4:84 5:75 6:76 7:72 8:69 9:66 10:67 
2 0 1:9 2:2 3:9 4:80 5:79 6:77 7:76 8:73 9:71 10:70 
2 2 1:9 2:6 3:3 4:79 5:74 6:77 7:79 8:77 9:73 10:74 
0 2 1:8 2:2 3:1 4:72 5:69 6:66 7:74 8:71 9:70 10:69 
2 2 1:2 2:12 3:34 4:74 5:71 6:70 7:78 8:79 9:77 10:76 
0 1.236886167779546 1:12 2:8 3:35 4:80 5:79 6:77 7:72 8:69 9:66 10:67 
1.031921150814979 0 1:8 2:8 3:12 4:74 5:71 6:70 7:75 8:75 9:70 10:65 
2 2 1:5 2:2 3:9 4:74 5:71 6:72 7:76 8:73 9:71 10:70 
2 0 1:11 2:5 3:20 4:75 5:76 6:73 7:74 8:74 9:69 10:69 
2 0 1:9 2:5 3:23 4:74 5:71 6:72 7:75 8:69 9:70 10:67 
0 2 1:9 2:12 3:32 4:78 5:79 6:77 7:80 8:79 9:77 10:75 
2 2 1:7 2:8 3:27 4:72 5:69 6:66 7:74 8:71 9:70 10:69 
2 2 1:7 2:8 3:22 4:75 5:75 6:70 7:74 8:71 9:72 10:72 
0 2 1:4 2:3 3:30 4:75 5:69 6:70 7:73 8:72 9:71 10:68 
2 0 1:16 2:11 3:33 4:84 5:75 6:76 7:74 8:71 9:72 10:72 
2 0 1:8 2:7 3:12 4:73 5:71 6:71 7:75 8:75 9:70 10:65 
2 2 1:3 2:4 3:9 4:75 5:67 6:71 7:76 8:73 9:71 10:70 
2 2 1:0 2:0 3:13 4:74 5:71 6:68 7:75 8:68 9:71 10:69 
2 2 1:0 2:0 3:34 4:72 5:68 6:68 7:78 8:78 9:76 10:73 
2 2 1:0 2:0 3:30 4:79 5:75 6:70 7:74 8:71 9:67 10:68 
2 2 1:0 2:1 3:18 4:74 5:71 6:67 7:74 8:69 9:67 10:67 
0.355462014859038 0 1:3 2:0 3:23 4:79 5:76 6:73 7:73 8:68 9:69 10:69 
0.8436569445865142 2 1:0 2:0 3:17 4:75 5:68 6:71 7:72 8:67 9:66 10:68 
0.5822256369286829 0 1:0 2:3 3:12 4:78 5:78 6:76 7:74 8:71 9:68 10:67 
0.5261816410311506 0 1:1 2:1 3:22 4:83 5:74 6:79 7:74 8:65 9:70 10:68 
2 2 1:0 2:1 3:27 4:73 5:68 6:69 7:74 8:68 9:68 10:68 
2 2 1:3 2:2 3:1 4:74 5:71 6:68 7:74 8:68 9:69 10:67 
2 2 1:1 2:1 3:22 4:74 5:69 6:67 7:74 8:65 9:70 10:68 
2 0 1:4 2:4 3:18 4:76 5:69 6:70 7:74 8:69 9:67 10:67 
2 0 1:6 2:3 3:9 4:78 5:78 6:76 7:75 8:70 9:70 10:70 
2 0 1:1 2:4 3:26 4:74 5:65 6:70 7:72 8:68 9:68 10:67 
0.2703276388905633 0 1:7 2:2 3:27 4:79 5:75 6:70 7:74 8:68 9:68 10:68 
2 2 1:4 2:8 3:29 4:73 5:72 6:70 7:79 8:73 9:74 10:74 
1.931425851194418 2 1:6 2:4 3:22 4:74 5:71 6:68 7:74 8:65 9:70 10:68 
0.2535293404863747 0 1:4 2:4 3:26 4:74 5:69 6:67 7:72 8:68 9:68 10:67 
2 2 1:8 2:10 3:3 4:79 5:73 6:74 7:79 8:75 9:70 10:72 
0 2 1:12 2:4 3:23 4:78 5:78 6:76 7:73 8:68 9:69 10:69 
0.8548075593334484 0 1:13 2:16 3:32 4:83 5:82 6:80 7:79 8:76 9:73 10:72 
2 2 1:5 2:11 3:29 4:74 5:71 6:67 7:79 8:73 9:74 10:74 
1.515476522479901 2 1:4 2:6 3:1 4:73 5:68 6:69 7:74 8:68 9:69 10:67 
2 0 1:10 2:8 3:30 4:75 5:68 6:71 7:74 8:71 9:67 10:68 
0.7481576322517326 2 1:16 2:10 3:3 4:78 5:78 6:76 7:79 8:75 9:70 10:72 
2 2 1:5 2:7 3:20 4:74 5:65 6:70 7:73 8:68 9:71 10:69 
2 2 1:4 2:3 3:9 4:72 5:68 6:68 7:75 8:70 9:70 10:70 
0 2 1:9 2:8 3:17 4:74 5:71 6:68 7:72 8:67 9:66 10:68 
2 0 1:7 2:10 3:13 4:76 5:69 6:70 7:75 8:68 9:71 10:69 
0 2 1:7 2:8 3:22 4:73 5:68 6:69 7:74 8:65 9:70 10:68 
2 2 1:10 2:8 3:17 4:74 5:69 6:67 7:72 8:67 9:66 10:68 
2 2 1:7 2:8 3:32 4:79 5:73 6:74 7:79 8:76 9:73 10:72 
2 0 1:16 2:8 3:3 4:83 5:74 6:79 7:79 8:75 9:70 10:72 
2 2 1:8 2:6 3:16 4:74 5:65 6:70 7:73 8:72 9:70 10:71 
0 2 1:9 2:4 3:20 4:74 5:71 6:68 7:73 8:68 9:71 10:69 
1.277131443253917 0 1:7 2:9 3:13 4:79 5:76 6:73 7:75 8:68 9:71 10:69 
2 0 1:7 2:8 3:22 4:79 5:75 6:70 7:74 8:65 9:70 10:68 
2 0 1:5 2:12 3:26 4:73 5:72 6:70 7:72 8:68 9:68 10:67 
2 2 1:1 2:5 3:17 4:73 5:68 6:71 7:72 8:67 9:66 10:68 
0 0.1707671985967278 1:18 2:9 3:2 4:83 5:74 6:79 7:76 8:69 9:70 10:70 
1.461643071105603 0 1:8 2:6 3:30 4:74 5:65 6:70 7:74 8:71 9:67 10:68 
0.6276128594227128 2 1:4 2:7 3:23 4:72 5:67 6:66 7:73 8:68 9:69 10:69 
0.5731236814348672 0 1:8 2:4 3:20 4:75 5:70 6:70 7:73 8:68 9:71 10:69 
2 0 1:5 2:3 3:1 4:79 5:76 6:73 7:74 8:68 9:69 10:67 
0.06288397626731002 2 1:18 2:18 3:25 4:83 5:82 6:80 7:83 8:74 9:79 10:76 
2 0 1:9 2:10 3:22 4:76 5:69 6:70 7:74 8:65 9:70 10:68 
2 2 1:5 2:6 3:17 4:73 5:72 6:70 7:72 8:67 9:66 10:68 
2 0 1:7 2:11 3:9 4:73 5:68 6:69 7:75 8:70 9:70 10:70 
0 0.111162943209888 1:10 2:3 3:20 4:74 5:69 6:67 7:73 8:68 9:71 10:69 
0.4097102845498806 2 1:11 2:9 3:29 4:78 5:78 6:76 7:79 8:73 9:74 10:74 
0.3454861252934665 0 1:15 2:8 3:32 4:83 5:74 6:79 7:79 8:76 9:73 10:72 
2 0 1:12 2:9 3:2 4:72 5:68 6:68 7:76 8:69 9:70 10:70 
0.03104947216774483 0 1:13 2:2 3:30 4:74 5:71 6:68 7:74 8:71 9:67 10:68 
2 2 1:3 2:7 3:3 4:72 5:67 6:66 7:79 8:75 9:70 10:72 
2 2 1:7 2:11 3:34 4:75 5:68 6:71 7:78 8:78 9:76 10:73 
2 2 1:10 2:7 3:18 4:78 5:78 6:76 7:74 8:69 9:67 10:67 
0.8296243844560033 0 1:15 2:6 3:29 4:83 5:74 6:79 7:79 8:73 9:74 10:74 
2 0 1:3 2:5 3:22 4:79 5:73 6:74 7:74 8:65 9:70 10:68 
0.3080496151828159 0 1:3 2:6 3:26 4:74 5:68 6:68 7:72 8:68 9:68 10:67 
0 2 1:11 2:10 3:12 4:79 5:76 6:73 7:74 8:71 9:68 10:67 
0 0.5703214160748915 1:7 2:10 3:16 4:74 5:69 6:67 7:73 8:72 9:70 10:71 
2 2 1:7 2:10 3:3 4:73 5:72 6:70 7:79 8:75 9:70 10:72 
2 2 1:12 2:3 3:22 4:78 5:78 6:76 7:74 8:65 9:70 10:68 
2 2 1:5 2:4 3:17 4:74 5:68 6:68 7:72 8:67 9:66 10:68 
0.06873022190041123 0 1:10 2:9 3:23 4:76 5:69 6:70 7:73 8:68 9:69 10:69 
0 2 1:3 2:10 3:16 4:74 5:71 6:67 7:73 8:72 9:70 10:71 
2 0.7062317501951139 1:7 2:9 3:18 4:79 5:75 6:70 7:74 8:69 9:67 10:67 
2 2 1:6 2:10 3:3 4:74 5:71 6:67 7:79 8:75 9:70 10:72 
2 0 1:13 2:7 3:20 4:79 5:76 6:73 7:73 8:68 9:71 10:69 
0 0.9294228446479399 1:8 2:7 3:9 4:74 5:68 6:68 7:75 8:70 9:70 10:70 
0 0.5693219127939868 1:6 2:4 3:17 4:79 5:73 6:74 7:72 8:67 9:66 10:68 
0 2 1:12 2:6 3:26 4:78 5:78 6:76 7:72 8:68 9:68 10:67 
2 2 1:5 2:3 3:22 4:74 5:68 6:69 7:74 8:65 9:70 10:68 
0 0.500509224993687 1:16 2:6 3:18 4:83 5:74 6:79 7:74 8:69 9:67 10:67 
2 2 1:1 2:7 3:13 4:72 5:67 6:66 7:75 8:68 9:71 10:69 
2 2 1:3 2:7 3:1 4:72 5:68 6:68 7:74 8:68 9:69 10:67 
2 2 1:3 2:16 3:25 4:74 5:65 6:70 7:83 8:74 9:79 10:76 
2 2 1:13 2:11 3:30 4:76 5:69 6:70 7:74 8:71 9:67 10:68 
1.079369211117381 0 1:16 2:4 3:16 4:79 5:76 6:73 7:73 8:72 9:70 10:71 
0 2 1:4 2:5 3:9 4:75 5:68 6:71 7:75 8:70 9:70 10:70 
2 2 1:7 2:13 3:2 4:74 5:69 6:67 7:76 8:69 9:70 10:70 
1.174551773885049 0 1:3 2:13 3:27 4:73 5:72 6:70 7:74 8:68 9:68 10:68 
2 2 1:4 2:11 3:29 4:73 5:68 6:69 7:79 8:73 9:74 10:74 
2 2 1:4 2:12 3:34 4:75 5:70 6:70 7:78 8:78 9:76 10:73 
1.015175542788097 1.168335810509284 1:6 2:7 3:1 4:72 5:67 6:66 7:74 8:68 9:69 10:67 
0 2 1:6 2:5 3:22 4:72 5:68 6:68 7:74 8:65 9:70 10:68 
0 0.1228109294229801 1:16 2:13 3:2 4:83 5:82 6:80 7:76 8:69 9:70 10:70 
0 1.314803595583003 1:13 2:9 3:17 4:83 5:74 6:79 7:72 8:67 9:66 10:68 
2 1.05064269083125 1:3 2:8 3:1 4:73 5:68 6:71 7:74 8:68 9:69 10:67 
2 2 1:9 2:7 3:22 4:72 5:67 6:66 7:74 8:65 9:70 10:68 
2 0 1:6 2:12 3:26 4:74 5:71 6:68 7:72 8:68 9:68 10:67 
2 2 1:8 2:9 3:2 4:74 5:68 6:68 7:76 8:69 9:70 10:70 
2 0 1:9 2:9 3:30 4:79 5:73 6:74 7:74 8:71 9:67 10:68 
2 0 1:8 2:4 3:16 4:78 5:78 6:76 7:73 8:72 9:70 10:71 
2 2 1:6 2:9 3:29 4:76 5:69 6:70 7:79 8:73 9:74 10:74 
2 2 1:5 2:8 3:34 4:79 5:75 6:70 7:78 8:78 9:76 10:73 
0.6320764065546171 0 1:13 2:3 3:12 4:72 5:67 6:66 7:74 8:71 9:68 10:67 
2 2 1:5 2:13 3:32 4:74 5:68 6:68 7:79 8:76 9:73 10:72 
2 0.2007280146193466 1:8 2:9 3:23 4:74 5:65 6:70 7:73 8:68 9:69 10:69 
0 2 1:14 2:4 3:13 4:83 5:82 6:80 7:75 8:68 9:71 10:69 
0 0.4793249778606072 1:11 2:10 3:20 4:72 5:67 6:66 7:73 8:68 9:71 10:69 
0.3525643261458037 0 1:6 2:7 3:18 4:75 5:70 6:70 7:74 8:69 9:67 10:67 
1.377718963033271 2 1:7 2:3 3:13 4:74 5:68 6:68 7:75 8:68 9:71 10:69 
2 2 1:9 2:8 3:34 4:79 5:76 6:73 7:78 8:78 9:76 10:73 
0 0.4500845640094699 1:11 2:10 3:22 4:74 5:71 6:67 7:74 8:65 9:70 10:68 
2 2 1:2 2:11 3:29 4:75 5:68 6:71 7:79 8:73 9:74 10:74 
2 0 1:7 2:9 3:27 4:78 5:78 6:76 7:74 8:68 9:68 10:68 
2 1.844268431717808 1:1 2:13 3:30 4:72 5:68 6:68 7:74 8:71 9:67 10:68 
2 0 1:12 2:4 3:16 4:72 5:67 6:66 7:73 8:72 9:70 10:71 
0 2 1:5 2:4 3:13 4:74 5:69 6:67 7:75 8:68 9:71 10:69 
0 2 1:8 2:7 3:34 4:79 5:73 6:74 7:78 8:78 9:76 10:73 
0 2 1:6 2:4 3:1 4:74 5:68 6:68 7:74 8:68 9:69 10:67 
0 2 1:11 2:14 3:17 4:79 5:75 6:70 7:72 8:67 9:66 10:68 
2 0 1:7 2:4 3:13 4:78 5:78 6:76 7:75 8:68 9:71 10:69 
0 2 1:6 2:9 3:32 4:74 5:65 6:70 7:79 8:76 9:73 10:72 
2 2 1:3 2:14 3:4 4:72 5:68 6:68 7:83 8:82 9:80 10:80 
2 2 1:5 2:10 3:2 4:74 5:71 6:68 7:76 8:69 9:70 10:70 
0.3427393552501738 0 1:13 2:7 3:16 4:73 5:68 6:71 7:73 8:72 9:70 10:71 
1.968778646942296 2 1:3 2:0 3:1 4:75 5:68 6:71 7:74 8:68 9:69 10:67 
0 0.1394321082000221 1:13 2:5 3:12 4:83 5:82 6:80 7:74 8:71 9:68 10:67 
0.1226279611705864 0.3626855648137438 1:9 2:11 3:17 4:76 5:69 6:70 7:72 8:67 9:66 10:68 
1.549294819950326 0 1:10 2:6 3:13 4:83 5:74 6:79 7:75 8:68 9:71 10:69 
2 2 1:6 2:10 3:29 4:74 5:65 6:70 7:79 8:73 9:74 10:74 
2 2 1:8 2:12 3:2 4:75 5:70 6:70 7:76 8:69 9:70 10:70 
2 2 1:13 2:11 3:30 4:73 5:68 6:71 7:74 8:71 9:67 10:68 
2 2 1:10 2:13 3:3 4:73 5:68 6:69 7:79 8:75 9:70 10:72 
2 0 1:1 2:6 3:18 4:74 5:68 6:69 7:74 8:69 9:67 10:67 
2 0 1:6 2:9 3:22 4:75 5:68 6:71 7:74 8:65 9:70 10:68 
2 0 1:7 2:9 3:26 4:79 5:73 6:74 7:72 8:68 9:68 10:67 
0 2 1:8 2:10 3:23 4:74 5:71 6:67 7:73 8:68 9:69 10:69 
0 2 1:10 2:5 3:16 4:79 5:75 6:70 7:73 8:72 9:70 10:71 
0 2 1:9 2:8 3:34 4:74 5:65 6:70 7:78 8:78 9:76 10:73 
0 1.468047098105365 1:0 2:0 3:15 4:75 5:69 6:72 7:73 8:65 9:68 10:67 
2 0 1:0 2:0 3:30 4:80 5:77 6:78 7:74 8:69 9:69 10:69 
1.291100014266992 0 1:1 2:0 3:23 4:79 5:73 6:73 7:72 8:63 9:68 10:66 
0 2 1:3 2:3 3:12 4:73 5:67 6:68 7:75 8:69 9:72 10:66 
0 2 1:1 2:0 3:20 4:78 5:75 6:72 7:78 8:70 9:75 10:71 
2 0 1:3 2:3 3:34 4:87 5:85 6:83 7:80 8:77 9:78 10:75 
2 2 1:4 2:4 3:3 4:79 5:73 6:73 7:80 8:74 9:72 10:75 
1.778838144040395 2 1:4 2:6 3:18 4:73 5:72 6:67 7:73 8:67 9:68 10:70 
2 0.1348518881209421 1:2 2:0 3:30 4:72 5:64 6:71 7:74 8:69 9:69 10:69 
2 2 1:3 2:1 3:2 4:75 5:69 6:72 7:77 8:70 9:71 10:70 
2 2 1:0 2:4 3:34 4:73 5:65 6:68 7:80 8:77 9:78 10:75 
2 2 1:2 2:6 3:12 4:74 5:70 6:66 7:75 8:69 9:72 10:66 
0.4558893532336414 0 1:4 2:1 3:23 4:80 5:74 6:72 7:72 8:63 9:68 10:66 
2 2 1:3 2:9 3:25 4:73 5:68 6:68 7:85 8:77 9:81 10:75 
2 2 1:4 2:3 3:15 4:74 5:67 6:68 7:73 8:65 9:68 10:67 
2 0 1:7 2:0 3:30 4:80 5:74 6:72 7:74 8:69 9:69 10:69 
2 0.4732695915803907 1:6 2:1 3:2 4:78 5:70 6:75 7:77 8:70 9:71 10:70 
0.997768869633237 2 1:10 2:5 3:27 4:73 5:72 6:67 7:74 8:70 9:66 10:69 
2 2 1:9 2:11 3:32 4:78 5:75 6:72 7:79 8:73 9:73 10:73 
0.1252894116996759 0 1:11 2:10 3:3 4:87 5:85 6:83 7:80 8:74 9:72 10:75 
1.147145039503226 2 1:11 2:4 3:15 4:79 5:73 6:73 7:73 8:65 9:68 10:67 
2 0 1:10 2:7 3:13 4:78 5:70 6:75 7:75 8:70 9:71 10:70 
0 2 1:6 2:7 3:26 4:74 5:70 6:66 7:74 8:67 9:68 10:69 
2 2 1:14 2:13 3:20 4:73 5:68 6:68 7:78 8:70 9:75 10:71 
2 0 1:5 2:7 3:22 4:77 5:70 6:71 7:72 8:64 9:71 10:68 
2 0 1:1 2:5 3:15 4:74 5:69 6:69 7:73 8:65 9:68 10:67 
2 0 1:6 2:9 3:27 4:72 5:64 6:71 7:74 8:70 9:66 10:69 
0.03989278207183378 0 1:18 2:4 3:26 4:73 5:68 6:68 7:74 8:67 9:68 10:69 
0.6416946812173971 2 1:7 2:10 3:20 4:70 5:67 6:65 7:78 8:70 9:75 10:71 
0.8887393733063047 0 1:13 2:6 3:34 4:85 5:77 6:81 7:80 8:77 9:78 10:75 
0 0.06718451317269884 1:9 2:6 3:5 4:75 5:69 6:72 7:73 8:72 9:67 10:68 
2 2 1:8 2:9 3:3 4:77 5:70 6:71 7:80 8:74 9:72 10:75 
0 2 1:6 2:7 3:24 4:80 5:77 6:78 7:70 8:67 9:65 10:68 
0.183054807342085 0 1:7 2:18 3:17 4:72 5:64 6:71 7:73 8:68 9:68 10:70 
2 2 1:4 2:3 3:5 4:72 5:63 6:68 7:73 8:72 9:67 10:68 
2 1.842960867143228 1:7 2:12 3:12 4:78 5:70 6:75 7:75 8:69 9:72 10:66 
0.03760834345840807 2 1:7 2:1 3:26 4:70 5:67 6:65 7:74 8:67 9:68 10:69 
2 2 1:6 2:6 3:3 4:75 5:70 6:71 7:80 8:74 9:72 10:75 
2 1.550790432695059 1:18 2:8 3:3 4:85 5:77 6:81 7:80 8:74 9:72 10:75 
2 2 1:6 2:14 3:4 4:75 5:70 6:71 7:87 8:85 9:83 10:79 
2 2 1:9 2:11 3:30 4:73 5:68 6:68 7:74 8:69 9:69 10:69 
2 1.432485581846276 1:4 2:5 3:23 4:73 5:67 6:68 7:72 8:63 9:68 10:66 
0 2 1:7 2:8 3:34 4:78 5:70 6:75 7:80 8:77 9:78 10:75 
0.3505179219890786 2 1:5 2:7 3:34 4:72 5:63 6:68 7:80 8:77 9:78 10:75 
0.008093060221890777 1.545844578666969 1:13 2:8 3:12 4:79 5:73 6:73 7:75 8:69 9:72 10:66 
0 2 1:7 2:10 3:24 4:80 5:74 6:72 7:70 8:67 9:65 10:68 
2 2 1:5 2:10 3:20 4:74 5:67 6:68 7:78 8:70 9:75 10:71 
0.475480584965542 2 1:11 2:1 3:5 4:72 5:64 6:71 7:73 8:72 9:67 10:68 
2 0 1:8 2:1 3:27 4:73 5:65 6:68 7:74 8:70 9:66 10:69 
2 2 1:6 2:8 3:29 4:73 5:68 6:68 7:78 8:75 9:72 10:73 
2 2 1:1 2:15 3:32 4:73 5:72 6:67 7:79 8:73 9:73 10:73 
2 2 1:5 2:9 3:3 4:75 5:69 6:72 7:80 8:74 9:72 10:75 
2 2 1:11 2:6 3:17 4:73 5:65 6:68 7:73 8:68 9:68 10:70 
1.482562554054645 2 1:11 2:8 3:34 4:72 5:64 6:71 7:80 8:77 9:78 10:75 
0 2 1:12 2:11 3:20 4:79 5:73 6:73 7:78 8:70 9:75 10:71 
2 0 1:6 2:1 3:27 4:72 5:63 6:68 7:74 8:70 9:66 10:69 
0.9107863621579264 2 1:4 2:7 3:29 4:70 5:67 6:65 7:78 8:75 9:72 10:73 
2 2 1:7 2:7 3:30 4:73 5:72 6:67 7:74 8:69 9:69 10:69 
2 2 1:7 2:5 3:34 4:80 5:74 6:72 7:80 8:77 9:78 10:75 
2 0 1:9 2:7 3:17 4:77 5:70 6:71 7:73 8:68 9:68 10:70 
2 2 1:6 2:8 3:20 4:74 5:69 6:69 7:78 8:70 9:75 10:71 
0.1274229711288593 2 1:8 2:6 3:24 4:73 5:67 6:68 7:70 8:67 9:65 10:68 
2 2 1:1 2:7 3:17 4:74 5:70 6:66 7:73 8:68 9:68 10:70 
2 0 1:10 2:11 3:22 4:79 5:73 6:73 7:72 8:64 9:71 10:68 
2 1.971588595084928 1:8 2:8 3:18 4:75 5:69 6:72 7:73 8:67 9:68 10:70 
2 0 1:2 2:4 3:29 4:78 5:70 6:75 7:78 8:75 9:72 10:73 
0.1576057611390535 0 1:14 2:10 3:26 4:87 5:85 6:83 7:74 8:67 9:68 10:69 
0.9209386789590822 2 1:9 2:5 3:20 4:73 5:65 6:68 7:78 8:70 9:75 10:71 
2 2 1:5 2:14 3:4 4:72 5:64 6:71 7:87 8:85 9:83 10:79 
2 2 1:9 2:11 3:2 4:73 5:72 6:67 7:77 8:70 9:71 10:70 
1.782072290406057 0 1:4 2:7 3:18 4:78 5:70 6:75 7:73 8:67 9:68 10:70 
0 0.9619748083645437 1:9 2:9 3:13 4:70 5:67 6:65 7:75 8:70 9:71 10:70 
2 2 1:8 2:12 3:15 4:80 5:77 6:78 7:73 8:65 9:68 10:67 
0 0.06799150455111222 1:18 2:2 3:17 4:85 5:77 6:81 7:73 8:68 9:68 10:70 
1.662898465790356 2 1:9 2:1 3:29 4:74 5:67 6:68 7:78 8:75 9:72 10:73 
2 0 1:1 2:5 3:22 4:78 5:75 6:72 7:72 8:64 9:71 10:68 
2 2 1:9 2:11 3:26 4:73 5:65 6:68 7:74 8:67 9:68 10:69 
0.7994414128733556 2 1:8 2:7 3:20 4:77 5:70 6:71 7:78 8:70 9:75 10:71 
2 2 1:7 2:11 3:34 4:73 5:67 6:68 7:80 8:77 9:78 10:75 
0.5929840307189937 0 1:6 2:7 3:27 4:78 5:70 6:75 7:74 8:70 9:66 10:69 
2 1.419959361248438 1:4 2:12 3:15 4:72 5:64 6:71 7:73 8:65 9:68 10:67 
2 0 1:10 2:9 3:18 4:74 5:67 6:68 7:73 8:67 9:68 10:70 
0.7181300982520514 0.1814386467188802 1:9 2:5 3:23 4:70 5:67 6:65 7:72 8:63 9:68 10:66 
2 2 1:6 2:11 3:34 4:74 5:70 6:66 7:80 8:77 9:78 10:75 
0 1.423958013248871 1:4 2:10 3:5 4:73 5:68 6:68 7:73 8:72 9:67 10:68 
1.897910783882975 0 1:9 2:6 3:27 4:74 5:67 6:68 7:74 8:70 9:66 10:69 
2 2 1:12 2:7 3:17 4:78 5:70 6:75 7:73 8:68 9:68 10:70 
2 2 1:3 2:7 3:29 4:74 5:69 6:69 7:78 8:75 9:72 10:73 
2 0 1:7 2:9 3:15 4:80 5:74 6:72 7:73 8:65 9:68 10:67 
0.1374217491868176 0 1:5 2:12 3:24 4:75 5:69 6:72 7:70 8:67 9:65 10:68 
2 2 1:8 2:11 3:2 4:72 5:64 6:71 7:77 8:70 9:71 10:70 
0.7414102478122342 0 1:12 2:7 3:5 4:70 5:67 6:65 7:73 8:72 9:67 10:68 
2 2 1:7 2:7 3:34 4:73 5:68 6:68 7:80 8:77 9:78 10:75 
2 2 1:8 2:7 3:3 4:73 5:67 6:68 7:80 8:74 9:72 10:75 
2 0 1:5 2:3 3:23 4:75 5:69 6:72 7:72 8:63 9:68 10:66 
0 2 1:13 2:12 3:24 4:78 5:70 6:75 7:70 8:67 9:65 10:68 
2 2 1:9 2:7 3:32 4:75 5:70 6:71 7:79 8:73 9:73 10:73 
2 2 1:7 2:8 3:3 4:74 5:70 6:66 7:80 8:74 9:72 10:75 
0.3656434103476052 0 1:18 2:5 3:2 4:87 5:85 6:83 7:77 8:70 9:71 10:70 
2 0.3138350929930011 1:6 2:6 3:24 4:74 5:67 6:68 7:70 8:67 9:65 10:68 
0 2 1:10 2:8 3:18 4:78 5:75 6:72 7:73 8:67 9:68 10:70 
2 2 1:6 2:9 3:22 4:70 5:67 6:65 7:72 8:64 9:71 10:68 
2 2 1:5 2:5 3:34 4:73 5:72 6:67 7:80 8:77 9:78 10:75 
2 2 1:10 2:10 3:3 4:73 5:68 6:68 7:80 8:74 9:72 10:75 
2 2 1:4 2:10 3:29 4:77 5:70 6:71 7:78 8:75 9:72 10:73 
2 2 1:13 2:1 3:23 4:78 5:70 6:75 7:72 8:63 9:68 10:66 
0.5879436321238942 0 1:8 2:9 3:12 4:72 5:64 6:71 7:75 8:69 9:72 10:66 
0 2 1:6 2:6 3:24 4:79 5:73 6:73 7:70 8:67 9:65 10:68 
0.4277811159538483 2 1:5 2:13 3:20 4:80 5:77 6:78 7:78 8:70 9:75 10:71 
1.108337830593847 1.781447179949283 1:9 2:10 3:27 4:78 5:75 6:72 7:74 8:70 9:66 10:69 
1.394517959961155 0 1:12 2:4 3:30 4:85 5:77 6:81 7:74 8:69 9:69 10:69 
0 2 1:6 2:8 3:32 4:75 5:69 6:72 7:79 8:73 9:73 10:73 
2 0 1:10 2:8 3:15 4:74 5:70 6:66 7:73 8:65 9:68 10:67 
1.839634813069535 0 1:9 2:8 3:22 4:73 5:72 6:67 7:72 8:64 9:71 10:68 
2 2 1:10 2:12 3:29 4:75 5:70 6:71 7:78 8:75 9:72 10:73 
1.378034217123036 2 1:7 2:12 3:27 4:73 5:67 6:68 7:74 8:70 9:66 10:69 
0 2 1:4 2:3 3:24 4:74 5:69 6:69 7:70 8:67 9:65 10:68 
2 2 1:5 2:10 3:13 4:73 5:65 6:68 7:75 8:70 9:71 10:70 
2 0 1:9 2:6 3:12 4:80 5:74 6:72 7:75 8:69 9:72 10:66 
2 0 1:5 2:8 3:15 4:73 5:68 6:68 7:73 8:65 9:68 10:67 
2 0 1:7 2:2 3:23 4:74 5:67 6:68 7:72 8:63 9:68 10:66 
2 2 1:9 2:11 3:2 4:74 5:70 6:66 7:77 8:70 9:71 10:70 
0 2 1:8 2:8 3:32 4:78 5:70 6:75 7:79 8:73 9:73 10:73 
2 0 1:10 2:8 3:17 4:73 5:67 6:68 7:73 8:68 9:68 10:70 
0 2 1:7 2:3 3:24 4:78 5:75 6:72 7:70 8:67 9:65 10:68 
0 2 1:10 2:8 3:20 4:80 5:74 6:72 7:78 8:70 9:75 10:71 
0 2 1:8 2:7 3:34 4:79 5:73 6:73 7:80 8:77 9:78 10:75 
0.8142581985464258 0 1:5 2:10 3:26 4:72 5:64 6:71 7:74 8:67 9:68 10:69 
2 2 1:7 2:10 3:32 4:74 5:67 6:68 7:79 8:73 9:73 10:73 
2 2 1:7 2:11 3:2 4:73 5:68 6:68 7:77 8:70 9:71 10:70 
2 2 1:3 2:5 3:15 4:70 5:67 6:65 7:73 8:65 9:68 10:67 
0.8177577924417578 0 1:8 2:12 3:30 4:78 5:70 6:75 7:74 8:69 9:69 10:69 
2 2 1:0 2:0 3:12 4:73 5:72 6:73 7:74 8:73 9:73 10:75 
2 2 1:0 2:0 3:22 4:73 5:73 6:73 7:74 8:72 9:73 10:74 
0 2 1:0 2:0 3:15 4:72 5:72 6:71 7:73 8:73 9:72 10:72 
1.446701202910855 2 1:0 2:0 3:6 4:74 5:76 6:74 7:72 8:72 9:72 10:71 
2 2 1:0 2:1 3:25 4:75 5:73 6:74 7:85 8:86 9:85 10:83 
0 1.750708553502497 1:3 2:1 3:17 4:72 5:72 6:72 7:73 8:73 9:73 10:73 
0.3759703623772833 1.978831640095105 1:1 2:0 3:2 4:79 5:81 6:79 7:76 8:77 9:75 10:77 
2 2 1:0 2:0 3:22 4:72 5:72 6:72 7:74 8:72 9:73 10:74 
2 2 1:4 2:3 3:26 4:73 5:72 6:73 7:74 8:76 9:74 10:72 
2 2 1:0 2:6 3:33 4:76 5:77 6:75 7:72 8:72 9:72 10:71 
2 2 1:1 2:0 3:12 4:73 5:73 6:73 7:74 8:73 9:73 10:75 
2 1.588497989626657 1:6 2:2 3:32 4:85 5:87 6:84 7:80 8:80 9:79 10:79 
2 2 1:5 2:4 3:25 4:77 5:80 6:76 7:85 8:86 9:85 10:83 
2 2 1:3 2:3 3:27 4:74 5:76 6:74 7:72 8:73 9:71 10:71 
2 2 1:3 2:1 3:22 4:72 5:73 6:71 7:74 8:72 9:73 10:74 
2 2 1:3 2:4 3:13 4:72 5:72 6:72 7:75 8:73 9:74 10:75 
0.663300371551065 2 1:6 2:1 3:12 4:73 5:74 6:72 7:74 8:73 9:73 10:75 
0 2 1:8 2:5 3:32 4:73 5:72 6:73 7:80 8:80 9:79 10:79 
2 2 1:4 2:6 3:26 4:73 5:73 6:73 7:74 8:76 9:74 10:72 
2 2 1:6 2:5 3:2 4:74 5:76 6:74 7:76 8:77 9:75 10:77 
2 2 1:2 2:6 3:6 4:73 5:73 6:72 7:72 8:72 9:72 10:71 
1.093530972287003 0 1:7 2:6 3:9 4:85 5:86 6:85 7:73 8:73 9:73 10:72 
2 0 1:4 2:11 3:18 4:75 5:73 6:74 7:73 8:72 9:73 10:73 
2 2 1:6 2:11 3:29 4:72 5:72 6:72 7:77 8:80 9:76 10:76 
2 2 1:7 2:6 3:9 4:72 5:72 6:71 7:73 8:73 9:73 10:72 
2 2 1:9 2:9 3:26 4:73 5:74 6:72 7:74 8:76 9:74 10:72 
0 2 1:7 2:8 3:32 4:73 5:73 6:73 7:80 8:80 9:79 10:79 
2 0 1:5 2:4 3:22 4:76 5:77 6:75 7:74 8:72 9:73 10:74 
0.008548182340252401 2 1:16 2:14 3:20 4:79 5:81 6:79 7:77 8:75 9:77 10:76 
0 0.7703675300166457 1:7 2:8 3:2 4:80 5:80 6:79 7:76 8:77 9:75 10:77 
1.959084271927991 0 1:2 2:7 3:24 4:74 5:73 6:73 7:72 8:72 9:71 10:72 
2 0 1:8 2:8 3:18 4:77 5:80 6:76 7:73 8:72 9:73 10:73 
0 2 1:10 2:9 3:32 4:73 5:74 6:72 7:80 8:80 9:79 10:79 
2 2 1:6 2:10 3:29 4:72 5:73 6:71 7:77 8:80 9:76 10:76 
0.1812277902460802 0 1:18 2:5 3:22 4:79 5:81 6:79 7:74 8:72 9:73 10:74 
2 2 1:9 2:18 3:3 4:80 5:80 6:79 7:79 8:81 9:79 10:78 
2 2 1:6 2:7 3:6 4:72 5:72 6:71 7:72 8:72 9:72 10:71 
2 2 1:7 2:7 3:29 4:76 5:77 6:75 7:77 8:80 9:76 10:76 
0.414476546709285 0 1:15 2:9 3:13 4:79 5:81 6:79 7:75 8:73 9:74 10:75 
0 0.169315871885793 1:4 2:10 3:5 4:77 5:80 6:76 7:73 8:74 9:72 10:72 
2 0 1:7 2:9 3:24 4:74 5:76 6:74 7:72 8:72 9:71 10:72 
0 2 1:5 2:10 3:32 4:77 5:75 6:77 7:80 8:80 9:79 10:79 
2 2 1:10 2:16 3:25 4:73 5:74 6:72 7:85 8:86 9:85 10:83 
2 2 1:9 2:8 3:20 4:75 5:73 6:74 7:77 8:75 9:77 10:76 
0 1.815300959885278 1:9 2:10 3:17 4:72 5:72 6:71 7:73 8:73 9:73 10:73 
2 2 1:12 2:4 3:29 4:74 5:76 6:74 7:77 8:80 9:76 10:76 
0 2 1:3 2:2 3:9 4:74 5:73 6:73 7:73 8:73 9:73 10:72 
0 1.757748698176087 1:7 2:11 3:13 4:80 5:80 6:79 7:75 8:73 9:74 10:75 
2 2 1:10 2:13 3:25 4:77 5:75 6:77 7:85 8:86 9:85 10:83 
2 2 1:10 2:7 3:2 4:73 5:73 6:73 7:76 8:77 9:75 10:77 
2 2 1:2 2:13 3:20 4:73 5:73 6:73 7:77 8:75 9:77 10:76 
0 1.861765856818631 1:5 2:7 3:33 4:72 5:72 6:72 7:72 8:72 9:72 10:71 
2 2 1:9 2:11 3:13 4:72 5:72 6:71 7:75 8:73 9:74 10:75 
1.649071538096121 0 1:9 2:4 3:29 4:80 5:80 6:79 7:77 8:80 9:76 10:76 
2 2 1:9 2:18 3:4 4:74 5:76 6:74 7:85 8:87 9:84 10:84 
2 2 1:5 2:5 3:9 4:74 5:72 6:73 7:73 8:73 9:73 10:72 
2 0 1:10 2:10 3:17 4:79 5:81 6:79 7:73 8:73 9:73 10:73 
1.443359876614 0 1:11 2:4 3:13 4:85 5:86 6:85 7:75 8:73 9:74 10:75 
2 2 1:12 2:10 3:5 4:72 5:72 6:71 7:73 8:74 9:72 10:72 
2 2 1:7 2:13 3:3 4:76 5:77 6:75 7:79 8:81 9:79 10:78 
0 2 1:5 2:5 3:6 4:74 5:72 6:73 7:72 8:72 9:72 10:71 
2 0 1:3 2:5 3:9 4:75 5:73 6:74 7:73 8:73 9:73 10:72 
2 2 1:8 2:11 3:25 4:73 5:73 6:72 7:85 8:86 9:85 10:83 
1.576344871691686 0 1:7 2:15 3:24 4:77 5:80 6:76 7:72 8:72 9:71 10:72 
1.601477827246141 0 1:9 2:4 3:18 4:74 5:76 6:74 7:73 8:72 9:73 10:73 
2 0 1:13 2:5 3:13 4:85 5:87 6:84 7:75 8:73 9:74 10:75 
2 2 1:12 2:13 3:3 4:72 5:72 6:71 7:79 8:81 9:79 10:78 
2 2 1:8 2:5 3:2 4:77 5:75 6:77 7:76 8:77 9:75 10:77 
1.221582306350244 0 1:8 2:2 3:27 4:74 5:72 6:73 7:72 8:73 9:71 10:71 
0 0.2719923047376641 1:13 2:2 3:18 4:80 5:80 6:79 7:73 8:72 9:73 10:73 
2 0 1:13 2:8 3:5 4:74 5:73 6:73 7:73 8:74 9:72 10:72 
1.627516453031109 0 1:2 2:10 3:15 4:72 5:72 6:72 7:73 8:73 9:72 10:72 
0.7125738136756502 1.547677305449174 1:12 2:16 3:12 4:79 5:81 6:79 7:74 8:73 9:73 10:75 
2 2 1:5 2:11 3:20 4:73 5:74 6:72 7:77 8:75 9:77 10:76 
2 0 1:10 2:3 3:27 4:75 5:73 6:74 7:72 8:73 9:71 10:71 
2 2 1:15 2:13 3:4 4:85 5:86 6:85 7:85 8:87 9:84 10:84 
2 2 1:5 2:10 3:22 4:73 5:74 6:72 7:74 8:72 9:73 10:74 
2 2 1:7 2:11 3:12 4:72 5:72 6:71 7:74 8:73 9:73 10:75 
2 2 1:4 2:12 3:29 4:73 5:72 6:73 7:77 8:80 9:76 10:76 
0 2 1:7 2:12 3:32 4:76 5:77 6:75 7:80 8:80 9:79 10:79 
2 2 1:1 2:3 3:6 4:73 5:73 6:73 7:72 8:72 9:72 10:71 
2 2 1:14 2:7 3:33 4:74 5:76 6:74 7:72 8:72 9:72 10:71 
2 2 1:13 2:7 3:2 4:75 5:73 6:74 7:76 8:77 9:75 10:77 
0 2 1:9 2:3 3:27 4:77 5:80 6:76 7:72 8:73 9:71 10:71 
2 2 1:4 2:9 3:29 4:73 5:73 6:73 7:77 8:80 9:76 10:76 
0 2 1:12 2:8 3:20 4:74 5:76 6:74 7:77 8:75 9:77 10:76 
2 0 1:7 2:3 3:27 4:73 5:73 6:73 7:72 8:73 9:71 10:71 
0 2 1:9 2:9 3:2 4:77 5:80 6:76 7:76 8:77 9:75 10:77 
2 2 1:5 2:12 3:13 4:72 5:72 6:72 7:75 8:73 9:74 10:75 
2 0 1:5 2:6 3:22 4:77 5:75 6:77 7:74 8:72 9:73 10:74 
0 0.2750263599171453 1:6 2:4 3:6 4:73 5:72 6:73 7:72 8:72 9:72 10:71 
0 2 1:9 2:8 3:20 4:80 5:80 6:79 7:77 8:75 9:77 10:76 
2 2 1:1 2:2 3:27 4:72 5:72 6:72 7:72 8:73 9:71 10:71 
0 2 1:2 2:7 3:18 4:72 5:73 6:71 7:73 8:72 9:73 10:73 
2 2 1:7 2:6 3:13 4:77 5:75 6:77 7:75 8:73 9:74 10:75 
0 2 1:14 2:11 3:32 4:74 5:76 6:74 7:80 8:80 9:79 10:79 
0.395687571521455 0 1:11 2:5 3:22 4:80 5:80 6:79 7:74 8:72 9:73 10:74 
2 2 1:5 2:9 3:20 4:73 5:73 6:72 7:77 8:75 9:77 10:76 
2 2 1:4 2:5 3:24 4:72 5:73 6:71 7:72 8:72 9:71 10:72 
2 2 1:5 2:14 3:26 4:75 5:73 6:74 7:74 8:76 9:74 10:72 
2 0 1:6 2:5 3:18 4:76 5:77 6:75 7:73 8:72 9:73 10:73 
2 2 1:5 2:12 3:9 4:72 5:72 6:72 7:73 8:73 9:73 10:72 
2 2 1:5 2:5 3:13 4:74 5:72 6:73 7:75 8:73 9:74 10:75 
0 2 1:6 2:8 3:6 4:73 5:74 6:72 7:72 8:72 9:72 10:71 
1.068018786521274 0 1:16 2:7 3:20 4:85 5:86 6:85 7:77 8:75 9:77 10:76 
2 2 1:8 2:5 3:22 4:73 5:73 6:72 7:74 8:72 9:73 10:74 
2 2 1:9 2:8 3:12 4:73 5:73 6:73 7:74 8:73 9:73 10:75 
2 2 1:5 2:8 3:5 4:73 5:72 6:73 7:73 8:74 9:72 10:72 
1.710858877239696 0 1:13 2:11 3:15 4:80 5:80 6:79 7:73 8:73 9:72 10:72 
2 2 1:5 2:6 3:29 4:74 5:72 6:73 7:77 8:80 9:76 10:76 
2 0 1:7 2:9 3:9 4:77 5:75 6:77 7:73 8:73 9:73 10:72 
2 2 1:5 2:7 3:27 4:73 5:74 6:72 7:72 8:73 9:71 10:71 
1.520785640510158 1.492320303463451 1:11 2:3 3:13 4:73 5:73 6:72 7:75 8:73 9:74 10:75 
0.8626546340731647 2 1:5 2:15 3:32 4:77 5:80 6:76 7:80 8:80 9:79 10:79 
2 0 1:10 2:4 3:12 4:72 5:72 6:72 7:74 8:73 9:73 10:75 
2 0 1:0 2:0 3:20 4:78 5:79 6:77 7:75 8:75 9:70 10:76 
0 2 1:0 2:0 3:11 4:73 5:73 6:72 7:73 8:74 9:72 10:72 
2 2 1:1 2:3 3:32 4:73 5:73 6:72 7:78 8:79 9:77 10:78 
1.441540365650587 2 1:3 2:0 3:33 4:73 5:72 6:74 7:73 8:73 9:73 10:72 
2 2 1:0 2:1 3:13 4:73 5:73 6:73 7:74 8:74 9:74 10:73 
1.611331155890036 0 1:1 2:0 3:22 4:74 5:74 6:74 7:72 8:71 9:72 10:72 
2 2 1:1 2:3 3:24 4:75 5:75 6:70 7:73 8:73 9:72 10:73 
2 2 1:1 2:3 3:32 4:74 5:75 6:75 7:78 8:79 9:77 10:78 
0 2 1:6 2:5 3:6 4:76 5:78 6:77 7:72 8:74 9:71 10:68 
2 2 1:0 2:3 3:11 4:72 5:71 6:72 7:73 8:74 9:72 10:72 
2 0.6471137584689208 1:3 2:2 3:29 4:78 5:79 6:77 7:76 8:75 9:76 10:74 
2 2 1:8 2:9 3:2 4:73 5:73 6:72 7:76 8:78 9:77 10:75 
1.99047253763347 0 1:15 2:6 3:26 4:84 5:85 6:86 7:77 8:78 9:75 10:77 
0 2 1:15 2:3 3:22 4:80 5:81 6:80 7:72 8:71 9:72 10:72 
0 2 1:5 2:3 3:1 4:75 5:75 6:70 7:71 8:71 9:71 10:70 
2 0 1:2 2:3 3:24 4:76 5:75 6:76 7:73 8:73 9:72 10:73 
0.8256970544562747 2 1:9 2:5 3:5 4:76 5:78 6:77 7:74 8:75 9:75 10:74 
2 2 1:11 2:11 3:12 4:73 5:72 6:74 7:73 8:73 9:72 10:73 
0 2 1:4 2:6 3:6 4:74 5:74 6:74 7:72 8:74 9:71 10:68 
0.4594641724043782 0 1:9 2:3 3:24 4:78 5:79 6:77 7:73 8:73 9:72 10:73 
1.565669865010994 0 1:5 2:14 3:34 4:74 5:75 6:75 7:73 8:72 9:74 10:71 
2 2 1:5 2:12 3:2 4:72 5:73 6:72 7:76 8:78 9:77 10:75 
0.4312204746845275 0 1:6 2:10 3:12 4:73 5:74 6:72 7:73 8:73 9:72 10:73 
2 2 1:0 2:4 3:26 4:73 5:73 6:72 7:77 8:78 9:75 10:77 
0 1.607235214306405 1:18 2:6 3:33 4:84 5:85 6:86 7:73 8:73 9:73 10:72 
2 2 1:10 2:8 3:5 4:74 5:74 6:74 7:74 8:75 9:75 10:74 
1.074960834834952 0 1:13 2:9 3:20 4:84 5:85 6:83 7:75 8:75 9:70 10:76 
2 2 1:7 2:18 3:3 4:73 5:73 6:72 7:80 8:81 9:80 10:80 
2 2 1:16 2:13 3:25 4:84 5:85 6:86 7:84 8:85 9:83 10:82 
2 0 1:9 2:9 3:12 4:73 5:73 6:73 7:73 8:73 9:72 10:73 
2 2 1:8 2:7 3:22 4:76 5:75 6:76 7:72 8:71 9:72 10:72 
0.8841284013817262 2 1:8 2:10 3:32 4:73 5:72 6:74 7:78 8:79 9:77 10:78 
0 0.7336420079517517 1:6 2:1 3:1 4:77 5:78 6:75 7:71 8:71 9:71 10:70 
1.215635113901938 2 1:7 2:6 3:24 4:72 5:71 6:72 7:73 8:73 9:72 10:73 
2 0 1:8 2:7 3:22 4:77 5:78 6:75 7:72 8:71 9:72 10:72 
0 2 1:3 2:7 3:33 4:71 5:71 6:71 7:73 8:73 9:73 10:72 
0 2 1:15 2:11 3:2 4:80 5:81 6:80 7:76 8:78 9:77 10:75 
2 2 1:5 2:4 3:5 4:75 5:75 6:70 7:74 8:75 9:75 10:74 
2 0 1:9 2:5 3:20 4:72 5:73 6:72 7:75 8:75 9:70 10:76 
2 1.317256866172089 1:8 2:10 3:17 4:76 5:78 6:77 7:73 8:73 9:73 10:73 
0 2 1:10 2:6 3:6 4:77 5:78 6:75 7:72 8:74 9:71 10:68 
2 2 1:8 2:5 3:32 4:73 5:74 6:72 7:78 8:79 9:77 10:78 
2 0 1:10 2:1 3:5 4:76 5:75 6:76 7:74 8:75 9:75 10:74 
1.14301002584882 0 1:7 2:7 3:17 4:74 5:74 6:74 7:73 8:73 9:73 10:73 
2 1.96959100998891 1:6 2:9 3:1 4:72 5:74 6:71 7:71 8:71 9:71 10:70 
0.6730969039229977 0 1:4 2:7 3:22 4:78 5:79 6:77 7:72 8:71 9:72 10:72 
2 2 1:13 2:16 3:4 4:76 5:78 6:77 7:84 8:85 9:86 10:83 
0.9297291641791328 0 1:4 2:5 3:11 4:73 5:73 6:73 7:73 8:74 9:72 10:72 
1.138155137674912 2 1:15 2:11 3:34 4:84 5:85 6:86 7:73 8:72 9:74 10:71 
0 2 1:5 2:7 3:13 4:75 5:75 6:70 7:74 8:74 9:74 10:73 
1.869723063219204 0 1:16 2:7 3:32 4:80 5:81 6:80 7:78 8:79 9:77 10:78 
0 2 1:5 2:9 3:6 4:73 5:73 6:73 7:72 8:74 9:71 10:68 
1.283317903900219 2 1:5 2:5 3:33 4:73 5:73 6:72 7:73 8:73 9:73 10:72 
2 0 1:11 2:4 3:24 4:76 5:78 6:77 7:73 8:73 9:72 10:73 
2 0.5360317971053086 1:5 2:7 3:12 4:72 5:71 6:72 7:73 8:73 9:72 10:73 
2 2 1:15 2:13 3:2 4:77 5:78 6:75 7:76 8:78 9:77 10:75 
0 2 1:6 2:5 3:33 4:72 5:73 6:72 7:73 8:73 9:73 10:72 
2 2 1:4 2:7 3:32 4:72 5:74 6:71 7:78 8:79 9:77 10:78 
2 0 1:3 2:7 3:20 4:73 5:73 6:73 7:75 8:75 9:70 10:76 
2 2 1:8 2:15 3:26 4:73 5:72 6:74 7:77 8:78 9:75 10:77 
2 2 1:4 2:4 3:24 4:73 5:74 6:72 7:73 8:73 9:72 10:73 
0 2 1:7 2:7 3:6 4:73 5:73 6:72 7:72 8:74 9:71 10:68 
0.33529752850186 0 1:10 2:7 3:1 4:73 5:72 6:74 7:71 8:71 9:71 10:70 
2 0 1:13 2:4 3:33 4:76 5:78 6:77 7:73 8:73 9:73 10:72 
2 2 1:7 2:2 3:5 4:72 5:74 6:71 7:74 8:75 9:75 10:74 
0 2 1:4 2:10 3:34 4:73 5:73 6:73 7:73 8:72 9:74 10:71 
2 2 1:7 2:4 3:13 4:71 5:71 6:71 7:74 8:74 9:74 10:73 
2 2 1:7 2:9 3:29 4:75 5:75 6:70 7:76 8:75 9:76 10:74 
0.5275997331135615 2 1:4 2:10 3:1 4:73 5:74 6:72 7:71 8:71 9:71 10:70 
0.4412786229555344 0 1:1 2:8 3:12 4:74 5:75 6:75 7:73 8:73 9:72 10:73 
2 2 1:9 2:9 3:22 4:73 5:72 6:74 7:72 8:71 9:72 10:72 
2 2 1:4 2:7 3:20 4:73 5:73 6:72 7:75 8:75 9:70 10:76 
2 2 1:9 2:14 3:3 4:71 5:71 6:71 7:80 8:81 9:80 10:80 
0 2 1:8 2:2 3:13 4:72 5:71 6:72 7:74 8:74 9:74 10:73 
2 2 1:4 2:4 3:5 4:72 5:73 6:72 7:74 8:75 9:75 10:74 
2 2 1:8 2:11 3:4 4:77 5:78 6:75 7:84 8:85 9:86 10:83 
2 0 1:9 2:7 3:15 4:78 5:79 6:77 7:72 8:73 9:72 10:70 
2 2 1:8 2:11 3:3 4:72 5:71 6:72 7:80 8:81 9:80 10:80 
2 0 1:11 2:4 3:15 4:76 5:78 6:77 7:72 8:73 9:72 10:70 
0 2 1:10 2:8 3:22 4:73 5:73 6:73 7:72 8:71 9:72 10:72 
0 2 1:8 2:11 3:6 4:73 5:74 6:72 7:72 8:74 9:71 10:68 
2 2 1:5 2:11 3:26 4:76 5:75 6:76 7:77 8:78 9:75 10:77 
2 2 1:4 2:12 3:32 4:73 5:73 6:72 7:78 8:79 9:77 10:78 
2 2 1:7 2:12 3:4 4:73 5:73 6:73 7:84 8:85 9:86 10:83 
2 0 1:4 2:3 3:13 4:74 5:75 6:75 7:74 8:74 9:74 10:73 
0.2847820907879077 2 1:3 2:7 3:34 4:72 5:73 6:72 7:73 8:72 9:74 10:71 
0 1.498155696220492 1:9 2:7 3:22 4:84 5:85 6:86 7:72 8:71 9:72 10:72 
2 0 1:10 2:7 3:33 4:76 5:75 6:76 7:73 8:73 9:73 10:72 
0 2 1:7 2:11 3:32 4:77 5:78 6:75 7:78 8:79 9:77 10:78 
2 0 1:7 2:6 3:11 4:72 5:73 6:72 7:73 8:74 9:72 10:72 
2 2 1:4 2:10 3:26 4:71 5:71 6:71 7:77 8:78 9:75 10:77 
0 2 1:10 2:4 3:22 4:73 5:73 6:72 7:72 8:71 9:72 10:72 
2 0 1:13 2:10 3:15 4:80 5:81 6:80 7:72 8:73 9:72 10:70 
0.9408401762819192 2 1:16 2:13 3:25 4:76 5:75 6:76 7:84 8:85 9:83 10:82 
2 2 1:4 2:18 3:29 4:72 5:74 6:71 7:76 8:75 9:76 10:74 
1.855201696528424 2 1:6 2:5 3:1 4:73 5:73 6:73 7:71 8:71 9:71 10:70 
1.841128878943725 0 1:15 2:8 3:5 4:84 5:85 6:86 7:74 8:75 9:75 10:74 
2 2 1:6 2:5 3:13 4:73 5:74 6:72 7:74 8:74 9:74 10:73 
2 2 1:7 2:15 3:4 4:72 5:73 6:72 7:84 8:85 9:86 10:83 
1.250339446875156 0 1:9 2:12 3:20 4:76 5:78 6:77 7:75 8:75 9:70 10:76 
2 2 1:11 2:4 3:5 4:73 5:73 6:72 7:74 8:75 9:75 10:74 
1.003330761725285 0 1:15 2:7 3:15 4:76 5:75 6:76 7:72 8:73 9:72 10:70 
1.52238864344038 0 1:15 2:11 3:2 4:84 5:85 6:86 7:76 8:78 9:77 10:75 
2 2 1:9 2:8 3:34 4:75 5:75 6:70 7:73 8:72 9:74 10:71 
2 0.7849261279290453 1:4 2:12 3:20 4:74 5:74 6:74 7:75 8:75 9:70 10:76 
1.736307087135378 2 1:10 2:15 3:29 4:76 5:78 6:77 7:76 8:75 9:76 10:74 
2 2 1:7 2:7 3:33 4:72 5:74 6:71 7:73 8:73 9:73 10:72 
2 2 1:4 2:3 3:5 4:71 5:71 6:71 7:74 8:75 9:75 10:74 
2 2 1:5 2:18 3:3 4:73 5:73 6:73 7:80 8:81 9:80 10:80 
0 1.528275452621186 1:5 2:10 3:24 4:73 5:72 6:74 7:73 8:73 9:72 10:73 
2 2 1:8 2:6 3:32 4:73 5:73 6:73 7:78 8:79 9:77 10:78 
2 2 1:8 2:10 3:29 4:74 5:74 6:74 7:76 8:75 9:76 10:74 
2 2 1:13 2:14 3:25 4:72 5:74 6:71 7:84 8:85 9:83 10:82 
0 2 1:7 2:8 3:17 4:75 5:75 6:70 7:73 8:73 9:73 10:73 
2 2 1:6 2:3 3:5 4:72 5:71 6:72 7:74 8:75 9:75 10:74 
-2 2 1:0 2:0 3:4 4:66 5:64 6:58 7:94 8:85 9:84 10:81 
-2 2 1:0 2:0 3:27 4:82 5:78 6:73 7:78 8:76 9:74 10:76 
-2 2 1:3 2:3 3:2 4:80 5:76 6:77 7:77 8:72 9:72 10:66 
-2 2 1:0 2:3 3:29 4:81 5:79 6:77 7:84 8:77 9:75 10:75 
-2 2 1:1 2:3 3:32 4:78 5:76 6:74 7:83 8:83 9:85 10:81 
-2 2 1:4 2:6 3:9 4:83 5:83 6:85 7:80 8:81 9:82 10:81 
-2 1.426040001189706 1:3 2:2 3:27 4:82 5:79 6:78 7:78 8:76 9:74 10:76 
-2 2 1:3 2:1 3:34 4:68 5:70 6:68 7:81 8:79 9:77 10:76 
-2 1.457205192410074 1:4 2:5 3:32 4:94 5:85 6:84 7:83 8:83 9:85 10:81 
-2 2 1:7 2:4 3:5 4:80 5:81 6:82 7:82 8:79 9:78 10:77 
-2 0 1:7 2:3 3:18 4:80 5:76 6:77 7:76 8:72 9:72 10:74 
-2 2 1:3 2:1 3:0 4:80 5:74 6:72 7:66 8:64 9:58 10:66 
-2 2 1:4 2:4 3:7 4:84 5:77 6:75 7:68 8:70 9:68 10:72 
-2 2 1:6 2:8 3:9 4:78 5:76 6:74 7:80 8:81 9:82 10:81 
-2 2 1:4 2:6 3:23 4:77 5:72 6:72 7:77 8:71 9:71 10:69 
-2 0 1:8 2:7 3:27 4:94 5:85 6:84 7:78 8:76 9:74 10:76 
-2 2 1:5 2:12 3:6 4:68 5:70 6:68 7:78 8:75 9:75 10:73 
-2 2 1:6 2:5 3:5 4:83 5:74 6:70 7:82 8:79 9:78 10:77 
-2 2 1:5 2:6 3:12 4:84 5:77 6:75 7:75 8:74 9:70 10:77 
-2 2 1:5 2:8 3:34 4:66 5:64 6:58 7:81 8:79 9:77 10:76 
-2 2 1:9 2:9 3:4 4:80 5:81 6:82 7:94 8:85 9:84 10:81 
-2 2 1:4 2:7 3:23 4:76 5:72 6:72 7:77 8:71 9:71 10:69 
-2 2 1:1 2:10 3:6 4:77 5:72 6:72 7:78 8:75 9:75 10:73 
-2 2 1:9 2:11 3:34 4:82 5:78 6:73 7:81 8:79 9:77 10:76 
-2 2 1:5 2:9 3:7 4:66 5:64 6:58 7:68 8:70 9:68 10:72 
-2 2 1:5 2:8 3:29 4:76 5:72 6:72 7:84 8:77 9:75 10:75 
-2 0.4135320966639002 1:11 2:8 3:23 4:83 5:83 6:85 7:77 8:71 9:71 10:69 
-2 2 1:6 2:10 3:20 4:78 5:76 6:74 7:80 8:74 9:72 10:74 
-2 2 1:1 2:2 3:2 4:75 5:74 6:70 7:77 8:72 9:72 10:66 
-2 2 1:8 2:6 3:9 4:80 5:74 6:72 7:80 8:81 9:82 10:81 
-2 2 1:6 2:5 3:5 4:77 5:71 6:71 7:82 8:79 9:78 10:77 
-2 2 1:9 2:7 3:3 4:84 5:77 6:75 7:82 8:78 9:73 10:78 
-2 2 1:5 2:2 3:12 4:66 5:64 6:58 7:75 8:74 9:70 10:77 
-2 0 1:3 2:4 3:23 4:78 5:76 6:74 7:77 8:71 9:71 10:69 
-2 1.758331966585951 1:6 2:15 3:22 4:80 5:76 6:77 7:73 8:72 9:70 10:71 
-2 2 1:14 2:3 3:27 4:81 5:79 6:77 7:78 8:76 9:74 10:76 
-2 2 1:8 2:5 3:12 4:82 5:78 6:73 7:75 8:74 9:70 10:77 
-2 2 1:4 2:7 3:7 4:82 5:79 6:78 7:68 8:70 9:68 10:72 
-2 2 1:9 2:9 3:25 4:83 5:74 6:70 7:92 8:87 9:86 10:86 
-2 2 1:5 2:9 3:3 4:77 5:72 6:72 7:82 8:78 9:73 10:78 
-2 2 1:3 2:7 3:26 4:77 5:71 6:71 7:83 8:74 9:70 10:74 
-2 0 1:10 2:6 3:2 4:83 5:83 6:85 7:77 8:72 9:72 10:66 
-2 2 1:7 2:5 3:0 4:82 5:78 6:73 7:66 8:64 9:58 10:66 
-2 0 1:2 2:6 3:12 4:82 5:79 6:78 7:75 8:74 9:70 10:77 
-2 2 1:7 2:8 3:27 4:75 5:74 6:70 7:78 8:76 9:74 10:76 
-2 2 1:9 2:7 3:3 4:76 5:72 6:72 7:82 8:78 9:73 10:78 
-2 2 1:6 2:4 3:20 4:77 5:71 6:71 7:80 8:74 9:72 10:74 
-2 2 1:10 2:16 3:22 4:92 5:87 6:86 7:73 8:72 9:70 10:71 
-2 2 1:4 2:13 3:34 4:80 5:74 6:72 7:81 8:79 9:77 10:76 
-2 2 1:4 2:16 3:32 4:82 5:78 6:73 7:83 8:83 9:85 10:81 
-2 2 1:4 2:5 3:5 4:76 5:72 6:72 7:82 8:79 9:78 10:77 
-2 2 1:14 2:8 3:23 4:73 5:72 6:70 7:77 8:71 9:71 10:69 
-2 2 1:11 2:8 3:25 4:81 5:79 6:77 7:92 8:87 9:86 10:86 
-2 2 1:6 2:6 3:6 4:80 5:76 6:77 7:78 8:75 9:75 10:73 
-2 0 1:12 2:5 3:18 4:80 5:81 6:82 7:76 8:72 9:72 10:74 
-2 2 1:4 2:5 3:2 4:83 5:74 6:70 7:77 8:72 9:72 10:66 
-2 2 1:6 2:11 3:23 4:68 5:70 6:68 7:77 8:71 9:71 10:69 
-2 2 1:14 2:13 3:27 4:83 5:83 6:85 7:78 8:76 9:74 10:76 
-2 2 1:7 2:6 3:0 4:80 5:76 6:77 7:66 8:64 9:58 10:66 
-2 2 1:8 2:7 3:7 4:81 5:79 6:77 7:68 8:70 9:68 10:72 
-2 2 1:7 2:13 3:27 4:73 5:72 6:70 7:78 8:76 9:74 10:76 
-2 2 1:2 2:8 3:13 4:76 5:72 6:72 7:80 8:76 9:77 10:73 
-2 2 1:7 2:11 3:27 4:80 5:81 6:82 7:78 8:76 9:74 10:76 
-2 2 1:7 2:7 3:34 4:77 5:72 6:72 7:81 8:79 9:77 10:76 
-2 2 1:10 2:7 3:23 4:66 5:64 6:58 7:77 8:71 9:71 10:69 
-2 2 1:16 2:6 3:13 4:83 5:83 6:85 7:80 8:76 9:77 10:73 
-2 2 1:3 2:14 3:32 4:80 5:74 6:72 7:83 8:83 9:85 10:81 
-2 2 1:5 2:8 3:18 4:77 5:71 6:71 7:76 8:72 9:72 10:74 
-2 2 1:12 2:15 3:25 4:83 5:83 6:85 7:92 8:87 9:86 10:86 
-2 2 1:6 2:4 3:20 4:82 5:79 6:78 7:80 8:74 9:72 10:74 
-2 2 1:8 2:8 3:34 4:76 5:72 6:72 7:81 8:79 9:77 10:76 
-2 2 1:9 2:15 3:3 4:81 5:79 6:77 7:82 8:78 9:73 10:78 
-2 2 1:4 2:8 3:0 4:68 5:70 6:68 7:66 8:64 9:58 10:66 
-2 1.911050711379088 1:13 2:4 3:5 4:92 5:87 6:86 7:82 8:79 9:78 10:77 
-2 2 1:9 2:9 3:18 4:84 5:77 6:75 7:76 8:72 9:72 10:74 
-2 2 1:10 2:6 3:12 4:77 5:72 6:72 7:75 8:74 9:70 10:77 
-2 2 1:9 2:9 3:34 4:83 5:83 6:85 7:81 8:79 9:77 10:76 
-2 2 1:8 2:11 3:25 4:78 5:76 6:74 7:92 8:87 9:86 10:86 
-2 2 1:2 2:15 3:4 4:80 5:74 6:72 7:94 8:85 9:84 10:81 
-2 2 1:4 2:10 3:3 4:68 5:70 6:68 7:82 8:78 9:73 10:78 
-2 2 1:7 2:8 3:0 4:75 5:74 6:70 7:66 8:64 9:58 10:66 
-2 2 1:5 2:8 3:27 4:77 5:71 6:71 7:78 8:76 9:74 10:76 
-2 0.9262414125253636 1:13 2:9 3:25 4:94 5:85 6:84 7:92 8:87 9:86 10:86 
-2 2 1:9 2:11 3:2 4:66 5:64 6:58 7:77 8:72 9:72 10:66 
-2 2 1:9 2:8 3:12 4:76 5:72 6:72 7:75 8:74 9:70 10:77 
-2 2 1:5 2:11 3:5 4:68 5:70 6:68 7:82 8:79 9:78 10:77 
-2 0.4251468218684602 1:10 2:6 3:26 4:92 5:87 6:86 7:83 8:74 9:70 10:74 
-2 2 1:11 2:7 3:18 4:77 5:72 6:72 7:76 8:72 9:72 10:74 
-2 2 1:6 2:5 3:3 4:75 5:74 6:70 7:82 8:78 9:73 10:78 
-1.924395769289293 2 1:5 2:11 3:4 4:77 5:71 6:71 7:94 8:85 9:84 10:81 
-2 2 1:10 2:8 3:27 4:84 5:77 6:75 7:78 8:76 9:74 10:76 
-2 2 1:9 2:9 3:9 4:81 5:79 6:77 7:80 8:81 9:82 10:81 
-2 2 1:10 2:8 3:29 4:80 5:81 6:82 7:84 8:77 9:75 10:75 
-2 0.8052032643514546 1:7 2:9 3:0 4:76 5:72 6:72 7:66 8:64 9:58 10:66 
-2 2 1:12 2:8 3:25 4:80 5:76 6:77 7:92 8:87 9:86 10:86 
-2 2 1:12 2:2 3:20 4:73 5:72 6:70 7:80 8:74 9:72 10:74 
-2 2 1:6 2:11 3:9 4:68 5:70 6:68 7:80 8:81 9:82 10:81 
-2 2 1:10 2:6 3:2 4:82 5:79 6:78 7:77 8:72 9:72 10:66 
-2 2 1:13 2:5 3:34 4:80 5:76 6:77 7:81 8:79 9:77 10:76 
-2 2 1:3 2:7 3:12 4:78 5:76 6:74 7:75 8:74 9:70 10:77 
-2 2 1:6 2:10 3:26 4:68 5:70 6:68 7:83 8:74 9:70 10:74 
-2 2 1:15 2:7 3:3 4:83 5:83 6:85 7:82 8:78 9:73 10:78 
-2 2 1:11 2:12 3:6 4:83 5:74 6:70 7:78 8:75 9:75 10:73 
-2 1.597168476380491 1:12 2:8 3:34 4:92 5:87 6:86 7:81 8:79 9:77 10:76 
-2 2 1:8 2:5 3:5 4:82 5:78 6:73 7:82 8:79 9:78 10:77 
-2 2 1:0 2:0 3:26 4:76 5:75 6:74 7:72 8:72 9:72 10:70 
-2 2 1:0 2:0 3:18 4:72 5:70 6:71 7:72 8:71 9:71 10:71 
-2 2 1:0 2:0 3:34 4:84 5:85 6:81 7:77 8:80 9:76 10:73 
-2 2 1:1 2:3 3:9 4:72 5:71 6:71 7:75 8:72 9:75 10:75 
-2 2 1:9 2:9 3:32 4:85 5:83 6:83 7:81 8:83 9:80 10:78 
-2 2 1:6 2:1 3:2 4:74 5:74 6:74 7:76 8:75 9:74 10:73 
-2 2 1:3 2:0 3:23 4:72 5:75 6:70 7:72 8:72 9:71 10:68 
-2 2 1:3 2:6 3:22 4:76 5:78 6:74 7:78 8:80 9:76 10:73 
-2 2 1:1 2:3 3:6 4:72 5:72 6:71 7:74 8:76 9:73 10:73 
-2 2 1:10 2:9 3:3 4:84 5:85 6:81 7:79 8:82 9:76 10:77 
-2 2 1:6 2:6 3:17 4:76 5:78 6:77 7:74 8:73 9:74 10:73 
-2 2 1:3 2:10 3:9 4:76 5:76 6:74 7:75 8:72 9:75 10:75 
-2 2 1:7 2:4 3:12 4:77 5:80 6:76 7:76 8:78 9:74 10:72 
-2 2 1:8 2:7 3:17 4:77 5:80 6:76 7:74 8:73 9:74 10:73 
-2 2 1:5 2:5 3:23 4:76 5:78 6:74 7:72 8:72 9:71 10:68 
-2 2 1:8 2:1 3:26 4:72 5:71 6:71 7:72 8:72 9:72 10:70 
-2 2 1:8 2:6 3:12 4:74 5:73 6:74 7:76 8:78 9:74 10:72 
-2 2 1:7 2:4 3:2 4:78 5:80 6:76 7:76 8:75 9:74 10:73 
-2 2 1:10 2:13 3:4 4:75 5:72 6:75 7:85 8:83 9:83 10:82 
-2 2 1:10 2:10 3:3 4:72 5:71 6:71 7:79 8:82 9:76 10:77 
-2 2 1:5 2:9 3:23 4:76 5:75 6:74 7:72 8:72 9:71 10:68 
-2 2 1:7 2:10 3:32 4:76 5:78 6:74 7:81 8:83 9:80 10:78 
-2 2 1:8 2:6 3:2 4:81 5:83 6:80 7:76 8:75 9:74 10:73 
-2 2 1:10 2:12 3:29 4:72 5:72 6:71 7:79 8:81 9:76 10:77 
-2 2 1:1 2:5 3:12 4:72 5:72 6:72 7:76 8:78 9:74 10:72 
-2 2 1:1 2:8 3:9 4:72 5:75 6:70 7:75 8:72 9:75 10:75 
-2 2 1:2 2:4 3:5 4:72 5:72 6:72 7:76 8:76 9:74 10:73 
-2 2 1:10 2:3 3:26 4:79 5:82 6:76 7:72 8:72 9:72 10:70 
-2 2 1:5 2:8 3:12 4:76 5:76 6:74 7:76 8:78 9:74 10:72 
-2 2 1:12 2:15 3:27 4:74 5:76 6:73 7:76 8:78 9:77 10:72 
-2 2 1:12 2:5 3:17 4:74 5:74 6:74 7:74 8:73 9:74 10:73 
-1.614501807212407 2 1:6 2:13 3:4 4:74 5:73 6:74 7:85 8:83 9:83 10:82 
-2 0 1:5 2:9 3:23 4:75 5:72 6:75 7:72 8:72 9:71 10:68 
-2 2 1:8 2:10 3:6 4:72 5:71 6:71 7:74 8:76 9:73 10:73 
-2 2 1:4 2:10 3:13 4:72 5:72 6:72 7:74 8:74 9:74 10:74 
-2 2 1:8 2:12 3:34 4:74 5:76 6:73 7:77 8:80 9:76 10:73 
-2 2 1:8 2:5 3:5 4:74 5:74 6:74 7:76 8:76 9:74 10:73 
-2 2 1:5 2:9 3:6 4:74 5:73 6:74 7:74 8:76 9:73 10:73 
-2 2 1:6 2:14 3:4 4:76 5:76 6:74 7:85 8:83 9:83 10:82 
-2 2 1:7 2:7 3:27 4:76 5:75 6:74 7:76 8:78 9:77 10:72 
-2 2 1:7 2:7 3:26 4:74 5:76 6:73 7:72 8:72 9:72 10:70 
-2 2 1:14 2:13 3:3 4:85 5:83 6:83 7:79 8:82 9:76 10:77 
-2 2 1:11 2:3 3:14 4:79 5:82 6:76 7:72 8:75 9:70 10:68 
-2 2 1:3 2:12 3:4 4:74 5:74 6:74 7:85 8:83 9:83 10:82 
-2 2 1:9 2:4 3:9 4:72 5:70 6:71 7:75 8:72 9:75 10:75 
-2 2 1:7 2:9 3:29 4:77 5:80 6:76 7:79 8:81 9:76 10:77 
-2 2 1:8 2:10 3:23 4:76 5:76 6:74 7:72 8:72 9:71 10:68 
-2 2 1:5 2:12 3:12 4:75 5:72 6:75 7:76 8:78 9:74 10:72 
-2 2 1:5 2:10 3:2 4:74 5:73 6:74 7:76 8:75 9:74 10:73 
-2 2 1:7 2:10 3:28 4:76 5:78 6:77 7:72 8:70 9:71 10:68 
-2 2 1:11 2:10 3:23 4:79 5:82 6:76 7:72 8:72 9:71 10:68 
-2 2 1:8 2:5 3:9 4:76 5:78 6:77 7:75 8:72 9:75 10:75 
-2 2 1:2 2:4 3:14 4:74 5:76 6:73 7:72 8:75 9:70 10:68 
-2 2 1:9 2:9 3:4 4:78 5:80 6:76 7:85 8:83 9:83 10:82 
-2 2 1:10 2:7 3:26 4:79 5:81 6:76 7:72 8:72 9:72 10:70 
-2 2 1:13 2:8 3:29 4:76 5:76 6:74 7:79 8:81 9:76 10:77 
-2 2 1:9 2:11 3:5 4:84 5:85 6:81 7:76 8:76 9:74 10:73 
-2 2 1:12 2:10 3:17 4:75 5:72 6:75 7:74 8:73 9:74 10:73 
-2 2 1:10 2:10 3:25 4:79 5:82 6:76 7:84 8:85 9:81 10:81 
-2 2 1:9 2:8 3:28 4:76 5:76 6:74 7:72 8:70 9:71 10:68 
-2 2 1:4 2:11 3:23 4:74 5:76 6:73 7:72 8:72 9:71 10:68 
-2 2 1:12 2:9 3:29 4:74 5:74 6:74 7:79 8:81 9:76 10:77 
-2 2 1:8 2:8 3:27 4:74 5:73 6:74 7:76 8:78 9:77 10:72 
-2 2 1:4 2:12 3:32 4:72 5:75 6:70 7:81 8:83 9:80 10:78 
-2 2 1:10 2:7 3:34 4:76 5:78 6:74 7:77 8:80 9:76 10:73 
-2 2 1:8 2:10 3:13 4:84 5:85 6:81 7:74 8:74 9:74 10:74 
-2 2 1:10 2:6 3:25 4:85 5:83 6:83 7:84 8:85 9:81 10:81 
-2 2 1:12 2:11 3:27 4:76 5:76 6:74 7:76 8:78 9:77 10:72 
-2 2 1:5 2:6 3:2 4:74 5:76 6:73 7:76 8:75 9:74 10:73 
-2 2 1:8 2:10 3:28 4:74 5:74 6:74 7:72 8:70 9:71 10:68 
-2 2 1:4 2:10 3:32 4:78 5:80 6:76 7:81 8:83 9:80 10:78 
-2 2 1:11 2:10 3:12 4:72 5:72 6:71 7:76 8:78 9:74 10:72 
-2 2 1:11 2:8 3:17 4:76 5:78 6:74 7:74 8:73 9:74 10:73 
-2 2 1:7 2:4 3:26 4:77 5:80 6:76 7:72 8:72 9:72 10:70 
-2 2 1:7 2:8 3:34 4:76 5:76 6:74 7:77 8:80 9:76 10:73 
-2 2 1:7 2:9 3:18 4:79 5:82 6:76 7:72 8:71 9:71 10:71 
-2 2 1:6 2:11 3:27 4:74 5:74 6:74 7:76 8:78 9:77 10:72 
-2 2 1:7 2:11 3:29 4:78 5:80 6:76 7:79 8:81 9:76 10:77 
-2 2 1:7 2:8 3:28 4:72 5:75 6:70 7:72 8:70 9:71 10:68 
-2 2 1:3 2:7 3:5 4:74 5:73 6:74 7:76 8:76 9:74 10:73 
-2 2 1:11 2:14 3:23 4:79 5:81 6:76 7:72 8:72 9:71 10:68 
-2 2 1:5 2:9 3:28 4:78 5:80 6:76 7:72 8:70 9:71 10:68 
-2 2 1:6 2:6 3:5 4:76 5:78 6:74 7:76 8:76 9:74 10:73 
-2 2 1:2 2:6 3:13 4:74 5:73 6:74 7:74 8:74 9:74 10:74 
-2 2 1:10 2:4 3:5 4:79 5:82 6:76 7:76 8:76 9:74 10:73 
-2 2 1:6 2:11 3:27 4:78 5:80 6:76 7:76 8:78 9:77 10:72 
-2 2 1:11 2:9 3:9 4:72 5:72 6:71 7:75 8:72 9:75 10:75 
-2 2 1:8 2:6 3:2 4:72 5:70 6:71 7:76 8:75 9:74 10:73 
-2 2 1:11 2:11 3:23 4:76 5:78 6:77 7:72 8:72 9:71 10:68 
-2 2 1:7 2:7 3:9 4:76 5:75 6:74 7:75 8:72 9:75 10:75 
-2 0.7312330582147828 1:12 2:4 3:5 4:85 5:83 6:83 7:76 8:76 9:74 10:73 
-2 2 1:4 2:3 3:14 4:76 5:76 6:74 7:72 8:75 9:70 10:68 
-2 2 1:13 2:7 3:12 4:85 5:83 6:83 7:76 8:78 9:74 10:72 
-2 2 1:12 2:15 3:29 4:72 5:71 6:71 7:79 8:81 9:76 10:77 
-2 2 1:9 2:2 3:23 4:72 5:72 6:72 7:72 8:72 9:71 10:68 
-2 2 1:8 2:18 3:25 4:76 5:78 6:77 7:84 8:85 9:81 10:81 
-2 2 1:4 2:6 3:27 4:72 5:70 6:71 7:76 8:78 9:77 10:72 
-2 2 1:12 2:7 3:26 4:81 5:83 6:80 7:72 8:72 9:72 10:70 
-2 2 1:0 2:0 3:22 4:72 5:72 6:71 7:75 8:72 9:75 10:68 
-2 2 1:0 2:0 3:5 4:73 5:68 6:74 7:75 8:80 9:72 10:71 
-2 2 1:0 2:0 3:4 4:74 5:76 6:73 7:84 8:83 9:83 10:84 
-2 0 1:0 2:3 3:19 4:74 5:76 6:75 7:71 8:73 9:70 10:71 
-2 2 1:0 2:1 3:23 4:77 5:80 6:75 7:74 8:76 9:73 10:69 
-2 0 1:0 2:3 3:18 4:79 5:81 6:78 7:74 8:74 9:73 10:74 
-2 2 1:1 2:0 3:12 4:75 5:80 6:72 7:76 8:76 9:74 10:72 
-2 2 1:0 2:1 3:28 4:76 5:76 6:74 7:73 8:68 9:74 10:71 
-2 2 1:3 2:0 3:9 4:72 5:76 6:72 7:75 8:75 9:73 10:74 
-2 2 1:1 2:3 3:29 4:75 5:72 6:75 7:80 8:83 9:75 10:79 
-2 2 1:1 2:1 3:27 4:72 5:72 6:71 7:77 8:80 9:75 10:75 
-2 2 1:4 2:1 3:3 4:71 5:73 6:70 7:79 8:81 9:78 10:77 
-2 2 1:2 2:4 3:4 4:75 5:72 6:75 7:84 8:83 9:83 10:84 
-2 2 1:1 2:4 3:9 4:76 5:76 6:74 7:75 8:75 9:73 10:74 
-2 2 1:3 2:4 3:18 4:70 5:71 6:70 7:74 8:74 9:73 10:74 
-2 2 1:4 2:9 3:25 4:72 5:76 6:72 7:82 8:81 9:79 10:79 
-2 2 1:5 2:7 3:1 4:72 5:72 6:71 7:70 8:71 9:70 10:65 
-2 2 1:8 2:5 3:5 4:71 5:73 6:70 7:75 8:80 9:72 10:71 
-2 2 1:5 2:10 3:23 4:75 5:80 6:72 7:74 8:76 9:73 10:69 
-2 2 1:8 2:5 3:5 4:72 5:72 6:71 7:75 8:80 9:72 10:71 
-2 2 1:10 2:15 3:12 4:74 5:74 6:73 7:76 8:76 9:74 10:72 
-2 2 1:7 2:1 3:33 4:75 5:72 6:75 7:72 8:76 9:72 10:72 
-2 2 1:4 2:11 3:18 4:75 5:75 6:73 7:74 8:74 9:73 10:74 
-2 2 1:6 2:10 3:23 4:73 5:68 6:74 7:74 8:76 9:73 10:69 
-2 2 1:13 2:7 3:19 4:76 5:76 6:74 7:71 8:73 9:70 10:71 
-2 2 1:2 2:15 3:4 4:72 5:76 6:72 7:84 8:83 9:83 10:84 
-2 2 1:11 2:14 3:12 4:74 5:76 6:73 7:76 8:76 9:74 10:72 
-2 2 1:4 2:12 3:3 4:70 5:71 6:70 7:79 8:81 9:78 10:77 
-2 2 1:5 2:12 3:25 4:71 5:73 6:70 7:82 8:81 9:79 10:79 
-2 2 1:8 2:7 3:9 4:72 5:72 6:71 7:75 8:75 9:73 10:74 
-2 2 1:12 2:5 3:1 4:77 5:79 6:78 7:70 8:71 9:70 10:65 
-2 2 1:9 2:12 3:13 4:77 5:80 6:75 7:76 8:76 9:74 10:77 
-2 2 1:12 2:10 3:4 4:76 5:76 6:74 7:84 8:83 9:83 10:84 
-2 2 1:8 2:5 3:19 4:74 5:74 6:73 7:71 8:73 9:70 10:71 
-2 2 1:7 2:6 3:32 4:75 5:72 6:75 7:81 8:79 9:80 10:80 
-2 2 1:7 2:10 3:12 4:77 5:80 6:75 7:76 8:76 9:74 10:72 
-2 2 1:5 2:5 3:27 4:75 5:75 6:73 7:77 8:80 9:75 10:75 
-2 2 1:10 2:13 3:3 4:73 5:68 6:74 7:79 8:81 9:78 10:77 
-2 2 1:5 2:7 3:2 4:74 5:74 6:73 7:72 8:72 9:71 10:70 
-2 2 1:10 2:6 3:29 4:72 5:76 6:72 7:80 8:83 9:75 10:79 
-2 2 1:3 2:7 3:32 4:77 5:80 6:75 7:81 8:79 9:80 10:80 
-2 2 1:8 2:5 3:19 4:72 5:72 6:71 7:71 8:73 9:70 10:71 
-2 2 1:10 2:9 3:5 4:72 5:76 6:72 7:75 8:80 9:72 10:71 
-2 2 1:10 2:10 3:28 4:77 5:79 6:78 7:73 8:68 9:74 10:71 
-2 2 1:11 2:8 3:1 4:73 5:68 6:74 7:70 8:71 9:70 10:65 
-2 2 1:5 2:3 3:17 4:81 5:79 6:80 7:74 8:76 9:75 10:70 
-2 2 1:4 2:5 3:18 4:77 5:80 6:75 7:74 8:74 9:73 10:74 
-2 2 1:10 2:9 3:28 4:75 5:80 6:72 7:73 8:68 9:74 10:71 
-2 2 1:1 2:3 3:18 4:74 5:76 6:75 7:74 8:74 9:73 10:74 
-0 2 1:5 2:15 3:4 4:72 5:72 6:71 7:84 8:83 9:83 10:84 
-2 2 1:9 2:7 3:27 4:74 5:76 6:73 7:77 8:80 9:75 10:75 
-2 2 1:7 2:7 3:19 4:79 5:81 6:78 7:71 8:73 9:70 10:71 
-2 2 1:5 2:7 3:23 4:74 5:76 6:75 7:74 8:76 9:73 10:69 
-2 2 1:10 2:6 3:18 4:77 5:79 6:78 7:74 8:74 9:73 10:74 
-2 2 1:9 2:9 3:13 4:75 5:75 6:73 7:76 8:76 9:74 10:77 
-2 2 1:12 2:13 3:4 4:80 5:83 6:75 7:84 8:83 9:83 10:84 
-2 2 1:6 2:13 3:1 4:74 5:74 6:73 7:70 8:71 9:70 10:65 
-2 2 1:7 2:7 3:32 4:76 5:76 6:74 7:81 8:79 9:80 10:80 
-2 2 1:9 2:7 3:18 4:72 5:76 6:72 7:74 8:74 9:73 10:74 
-2 2 1:10 2:8 3:23 4:77 5:79 6:78 7:74 8:76 9:73 10:69 
-2 0 1:7 2:7 3:28 4:81 5:79 6:80 7:73 8:68 9:74 10:71 
-2 2 1:8 2:10 3:5 4:74 5:74 6:73 7:75 8:80 9:72 10:71 
-2 2 1:11 2:8 3:18 4:76 5:76 6:74 7:74 8:74 9:73 10:74 
-2 2 1:13 2:7 3:2 4:70 5:71 6:70 7:72 8:72 9:71 10:70 
-2 2 1:11 2:9 3:22 4:77 5:79 6:78 7:75 8:72 9:75 10:68 
-2 2 1:8 2:13 3:9 4:81 5:79 6:80 7:75 8:75 9:73 10:74 
-0.09546744965419071 2 1:8 2:10 3:4 4:70 5:71 6:70 7:84 8:83 9:83 10:84 
-2 2 1:4 2:10 3:22 4:72 5:76 6:72 7:75 8:72 9:75 10:68 
-2 2 1:3 2:6 3:1 4:77 5:80 6:75 7:70 8:71 9:70 10:65 
-2 2 1:7 2:13 3:2 4:73 5:68 6:74 7:72 8:72 9:71 10:70 
-2 2 1:11 2:9 3:25 4:74 5:74 6:73 7:82 8:81 9:79 10:79 
-2 0.8671629721235117 1:7 2:10 3:13 4:84 5:83 6:83 7:76 8:76 9:74 10:77 
-0 2 1:7 2:5 3:4 4:73 5:68 6:74 7:84 8:83 9:83 10:84 
-2 2 1:8 2:4 3:27 4:76 5:76 6:74 7:77 8:80 9:75 10:75 
-2 2 1:7 2:12 3:3 4:72 5:76 6:72 7:79 8:81 9:78 10:77 
-2 0 1:6 2:3 3:12 4:84 5:83 6:83 7:76 8:76 9:74 10:72 
-2 2 1:6 2:9 3:29 4:71 5:73 6:70 7:80 8:83 9:75 10:79 
-2 2 1:4 2:5 3:27 4:76 5:76 6:74 7:77 8:80 9:75 10:75 
-2 2 1:5 2:10 3:3 4:76 5:76 6:74 7:79 8:81 9:78 10:77 
-2 2 1:6 2:2 3:12 4:74 5:76 6:75 7:76 8:76 9:74 10:72 
-2 2 1:10 2:12 3:5 4:70 5:71 6:70 7:75 8:80 9:72 10:71 
-2 2 1:10 2:10 3:33 4:75 5:80 6:72 7:72 8:76 9:72 10:72 
-2 2 1:9 2:6 3:23 4:72 5:72 6:71 7:74 8:76 9:73 10:69 
-2 2 1:8 2:6 3:13 4:72 5:76 6:72 7:76 8:76 9:74 10:77 
-2 2 1:8 2:16 3:25 4:77 5:80 6:75 7:82 8:81 9:79 10:79 
-2 2 1:6 2:5 3:5 4:76 5:76 6:74 7:75 8:80 9:72 10:71 
-2 2 1:7 2:6 3:33 4:73 5:68 6:74 7:72 8:76 9:72 10:72 
-2 2 1:0 2:0 3:34 4:73 5:73 6:69 7:79 8:78 9:79 10:76 
-2 2 1:0 2:0 3:29 4:75 5:67 6:70 7:79 8:82 9:76 10:75 
-2 0 1:0 2:1 3:23 4:84 5:76 6:77 7:75 8:67 9:70 10:69 
-2 2 1:3 2:0 3:5 4:76 5:75 6:73 7:75 8:75 9:70 10:68 
-2 2 1:0 2:0 3:2 4:70 5:69 6:67 7:73 8:66 9:69 10:67 
-2 0 1:0 2:1 3:22 4:75 5:76 6:73 7:73 8:73 9:69 10:69 
-2 2 1:3 2:3 3:32 4:74 5:73 6:72 7:80 8:80 9:78 10:76 
-2 2 1:6 2:4 3:13 4:75 5:72 6:71 7:76 8:75 9:73 10:74 
-2 2 1:1 2:4 3:29 4:75 5:75 6:70 7:79 8:82 9:76 10:75 
-2 2 1:3 2:1 3:18 4:75 5:72 6:73 7:75 8:76 9:73 10:74 
-2 2 1:2 2:4 3:9 4:73 5:73 6:69 7:75 8:72 9:73 10:68 
-2 2 1:3 2:4 3:2 4:73 5:72 6:67 7:73 8:66 9:69 10:67 
-2 2 1:3 2:3 3:22 4:70 5:71 6:70 7:73 8:73 9:69 10:69 
-2 2 1:8 2:10 3:1 4:76 5:75 6:73 7:74 8:73 9:72 10:67 
-2 0.307170497341709 1:12 2:7 3:12 4:83 5:81 6:81 7:75 8:72 9:71 10:72 
-2 2 1:8 2:16 3:34 4:75 5:72 6:71 7:79 8:78 9:79 10:76 
-2 2 1:5 2:8 3:9 4:75 5:67 6:70 7:75 8:72 9:73 10:68 
-2 2 1:6 2:4 3:28 4:73 5:73 6:72 7:73 8:72 9:67 10:68 
-2 2 1:2 2:16 3:32 4:73 5:72 6:67 7:80 8:80 9:78 10:76 
-2 2 1:16 2:6 3:3 4:79 5:78 6:79 7:79 8:79 9:74 10:74 
-2 2 1:3 2:8 3:13 4:73 5:72 6:67 7:76 8:75 9:73 10:74 
-2 2 1:7 2:16 3:25 4:74 5:73 6:72 7:83 8:81 9:81 10:79 
-2 2 1:9 2:1 3:2 4:75 5:76 6:73 7:73 8:66 9:69 10:67 
-2 2 1:2 2:7 3:3 4:73 5:73 6:69 7:79 8:79 9:74 10:74 
-2 2 1:12 2:14 3:34 4:70 5:69 6:67 7:79 8:78 9:79 10:76 
-2 2 1:12 2:10 3:32 4:79 5:82 6:76 7:80 8:80 9:78 10:76 
-2 2 1:18 2:5 3:13 4:84 5:76 6:77 7:76 8:75 9:73 10:74 
-2 2 1:4 2:10 3:20 4:75 5:76 6:73 7:70 8:69 9:67 10:65 
-2 2 1:6 2:8 3:3 4:70 5:71 6:70 7:79 8:79 9:74 10:74 
-2 2 1:11 2:8 3:13 4:79 5:78 6:79 7:76 8:75 9:73 10:74 
-2 2 1:12 2:3 3:12 4:75 5:75 6:70 7:75 8:72 9:71 10:72 
-2 2 1:4 2:12 3:33 4:73 5:73 6:69 7:73 8:73 9:72 10:72 
-2 2 1:9 2:7 3:2 4:75 5:67 6:70 7:73 8:66 9:69 10:67 
-2 0.7644810131932466 1:4 2:10 3:23 4:74 5:73 6:72 7:75 8:67 9:70 10:69 
-2 2 1:2 2:13 3:29 4:75 5:76 6:73 7:79 8:82 9:76 10:75 
-2 2 1:8 2:8 3:20 4:75 5:67 6:70 7:70 8:69 9:67 10:65 
-2 2 1:13 2:1 3:12 4:73 5:66 6:69 7:75 8:72 9:71 10:72 
-2 2 1:11 2:7 3:22 4:79 5:82 6:76 7:73 8:73 9:69 10:69 
-2 2 1:10 2:4 3:34 4:80 5:80 6:78 7:79 8:78 9:79 10:76 
-2 2 1:2 2:4 3:1 4:75 5:72 6:71 7:74 8:73 9:72 10:67 
-2 1.822102390900917 1:9 2:9 3:28 4:75 5:67 6:70 7:73 8:72 9:67 10:68 
-2 2 1:5 2:12 3:3 4:74 5:73 6:72 7:79 8:79 9:74 10:74 
-2 0 1:5 2:5 3:22 4:79 5:78 6:79 7:73 8:73 9:69 10:69 
-2 2 1:13 2:10 3:3 4:70 5:69 6:67 7:79 8:79 9:74 10:74 
-2 2 1:4 2:3 3:12 4:73 5:73 6:72 7:75 8:72 9:71 10:72 
-2 2 1:3 2:6 3:13 4:75 5:75 6:70 7:76 8:75 9:73 10:74 
-2 0 1:3 2:13 3:28 4:75 5:72 6:71 7:73 8:72 9:67 10:68 
-2 2 1:4 2:4 3:12 4:76 5:75 6:73 7:75 8:72 9:71 10:72 
-2 2 1:4 2:9 3:9 4:75 5:76 6:73 7:75 8:72 9:73 10:68 
-2 2 1:7 2:18 3:4 4:75 5:75 6:70 7:84 8:76 9:77 10:81 
-2 2 1:7 2:8 3:22 4:75 5:72 6:73 7:73 8:73 9:69 10:69 
-2 2 1:7 2:13 3:20 4:80 5:80 6:78 7:70 8:69 9:67 10:65 
-2 2 1:10 2:11 3:28 4:73 5:66 6:69 7:73 8:72 9:67 10:68 
-2 2 1:5 2:5 3:13 4:79 5:79 6:74 7:76 8:75 9:73 10:74 
-2 2 1:10 2:8 3:34 4:75 5:67 6:70 7:79 8:78 9:79 10:76 
-2 2 1:5 2:5 3:32 4:75 5:72 6:73 7:80 8:80 9:78 10:76 
-2 2 1:6 2:10 3:2 4:76 5:75 6:73 7:73 8:66 9:69 10:67 
-2 2 1:9 2:8 3:1 4:73 5:72 6:67 7:74 8:73 9:72 10:67 
-2 2 1:8 2:11 3:34 4:75 5:75 6:70 7:79 8:78 9:79 10:76 
-2 2 1:7 2:11 3:22 4:75 5:67 6:70 7:73 8:73 9:69 10:69 
-2 2 1:18 2:8 3:3 4:83 5:81 6:81 7:79 8:79 9:74 10:74 
-2 2 1:13 2:6 3:5 4:75 5:76 6:73 7:75 8:75 9:70 10:68 
-2 0 1:5 2:6 3:28 4:80 5:80 6:78 7:73 8:72 9:67 10:68 
-2 2 1:7 2:11 3:22 4:75 5:75 6:70 7:73 8:73 9:69 10:69 
-2 2 1:5 2:11 3:18 4:75 5:72 6:71 7:75 8:76 9:73 10:74 
-2 2 1:10 2:12 3:29 4:70 5:69 6:67 7:79 8:82 9:76 10:75 
-2 2 1:9 2:7 3:5 4:75 5:72 6:73 7:75 8:75 9:70 10:68 
-2 2 1:5 2:6 3:21 4:75 5:75 6:70 7:70 8:71 9:70 10:68 
-2 2 1:7 2:7 3:12 4:70 5:71 6:70 7:75 8:72 9:71 10:72 
-2 2 1:7 2:11 3:18 4:70 5:69 6:67 7:75 8:76 9:73 10:74 
-2 2 1:9 2:7 3:34 4:73 5:73 6:72 7:79 8:78 9:79 10:76 
-2 2 1:8 2:7 3:9 4:70 5:69 6:67 7:75 8:72 9:73 10:68 
-2 2 1:16 2:18 3:4 4:80 5:80 6:78 7:84 8:76 9:77 10:81 
-2 2 1:4 2:10 3:22 4:73 5:73 6:72 7:73 8:73 9:69 10:69 
-2 2 1:0 2:9 3:2 4:68 5:65 6:65 7:73 8:66 9:69 10:67 
-2 2 1:16 2:7 3:34 4:84 5:76 6:77 7:79 8:78 9:79 10:76 
-2 2 1:2 2:5 3:21 4:73 5:73 6:72 7:70 8:71 9:70 10:68 
-2 2 1:13 2:6 3:13 4:75 5:72 6:73 7:76 8:75 9:73 10:74 
-2 2 1:4 2:6 3:29 4:73 5:73 6:69 7:79 8:82 9:76 10:75 
-2 2 1:8 2:6 3:5 4:70 5:69 6:67 7:75 8:75 9:70 10:68 
-2 2 1:11 2:8 3:4 4:75 5:72 6:73 7:84 8:76 9:77 10:81 
-2 2 1:4 2:2 3:33 4:75 5:75 6:70 7:73 8:73 9:72 10:72 
-2 2 1:9 2:7 3:13 4:75 5:67 6:70 7:76 8:75 9:73 10:74 
-2 2 1:0 2:0 3:33 4:74 5:71 6:70 7:74 8:71 9:72 10:72 
-2 2 1:0 2:0 3:34 4:74 5:71 6:72 7:78 8:79 9:77 10:76 
-2 0 1:1 2:3 3:18 4:78 5:79 6:77 7:73 8:71 9:71 10:72 
-2 0 1:0 2:0 3:23 4:79 5:77 6:73 7:75 8:69 9:70 10:67 
-2 2 1:6 2:3 3:30 4:80 5:79 6:77 7:73 8:72 9:71 10:68 
-2 2 1:4 2:3 3:27 4:73 5:72 6:71 7:74 8:71 9:70 10:69 
-2 2 1:1 2:4 3:1 4:79 5:77 6:73 7:74 8:71 9:70 10:69 
-2 2 1:6 2:0 3:35 4:75 5:75 6:70 7:72 8:69 9:66 10:67 
-2 2 1:7 2:2 3:3 4:80 5:79 6:77 7:79 8:77 9:73 10:74 
-2 2 1:5 2:4 3:23 4:74 5:71 6:70 7:75 8:69 9:70 10:67 
-2 2 1:1 2:3 3:20 4:72 5:69 6:66 7:74 8:74 9:69 10:69 
-2 2 1:2 2:7 3:12 4:78 5:79 6:77 7:75 8:75 9:70 10:65 
-2 2 1:4 2:9 3:2 4:74 5:71 6:72 7:75 8:67 9:71 10:68 
-2 2 1:7 2:5 3:23 4:74 5:71 6:70 7:75 8:69 9:70 10:67 
-2 2 1:11 2:18 3:4 4:80 5:79 6:77 7:84 8:75 9:76 10:75 
-2 2 1:15 2:11 3:12 4:79 5:74 6:77 7:75 8:75 9:70 10:65 
-2 2 1:11 2:15 3:25 4:73 5:72 6:71 7:83 8:79 9:78 10:76 
-2 2 1:6 2:10 3:18 4:79 5:77 6:73 7:73 8:71 9:71 10:72 
-2 2 1:6 2:9 3:22 4:75 5:69 6:70 7:74 8:71 9:72 10:72 
-2 2 1:12 2:7 3:33 4:75 5:75 6:70 7:74 8:71 9:72 10:72 
-2 2 1:12 2:9 3:30 4:76 5:73 6:71 7:73 8:72 9:71 10:68 
-2 2 1:10 2:16 3:4 4:74 5:71 6:72 7:84 8:75 9:76 10:75 
-2 2 1:6 2:1 3:20 4:72 5:68 6:70 7:74 8:74 9:69 10:69 
-2 2 1:5 2:5 3:35 4:74 5:71 6:72 7:72 8:69 9:66 10:67 
-2 2 1:6 2:11 3:30 4:72 5:69 6:66 7:73 8:72 9:71 10:68 
-2 2 1:7 2:14 3:4 4:75 5:67 6:71 7:84 8:75 9:76 10:75 
-2 2 1:2 2:7 3:27 4:74 5:74 6:69 7:74 8:71 9:70 10:69 
-2 2 1:13 2:3 3:20 4:79 5:74 6:77 7:74 8:74 9:69 10:69 
-2 2 1:6 2:4 3:31 4:74 5:71 6:72 7:72 8:68 9:70 10:68 
-2 2 1:16 2:10 3:18 4:80 5:79 6:77 7:73 8:71 9:71 10:72 
-2 2 1:11 2:6 3:33 4:79 5:74 6:77 7:74 8:71 9:72 10:72 
-2 2 1:3 2:8 3:22 4:74 5:74 6:69 7:74 8:71 9:72 10:72 
-2 2 1:7 2:4 3:20 4:74 5:71 6:72 7:74 8:74 9:69 10:69 
-2 2 1:3 2:10 3:9 4:74 5:71 6:70 7:76 8:73 9:71 10:70 
-2 2 1:5 2:6 3:3 4:72 5:68 6:70 7:79 8:77 9:73 10:74 
-2 2 1:11 2:13 3:32 4:76 5:73 6:71 7:80 8:79 9:77 10:75 
-2 2 1:7 2:8 3:20 4:73 5:72 6:71 7:74 8:74 9:69 10:69 
-2 2 1:16 2:12 3:34 4:84 5:75 6:76 7:78 8:79 9:77 10:76 
-2 2 1:1 2:11 3:9 4:74 5:71 6:70 7:76 8:73 9:71 10:70 
-2 2 1:4 2:15 3:25 4:74 5:71 6:72 7:83 8:79 9:78 10:76 
-2 2 1:13 2:4 3:1 4:78 5:79 6:77 7:74 8:71 9:70 10:69 
-2 2 1:8 2:10 3:2 4:74 5:74 6:69 7:75 8:67 9:71 10:68 
-2 2 1:12 2:6 3:33 4:75 5:69 6:70 7:74 8:71 9:72 10:72 
-2 2 1:5 2:5 3:31 4:74 5:71 6:70 7:72 8:68 9:70 10:68 
-2 1.948133827809091 1:1 2:0 3:35 4:74 5:71 6:70 7:72 8:69 9:66 10:67 
-2 2 1:5 2:13 3:32 4:72 5:68 6:70 7:80 8:79 9:77 10:75 
-2 2 1:6 2:12 3:18 4:75 5:75 6:70 7:73 8:71 9:71 10:72 
-2 2 1:5 2:6 3:1 4:74 5:71 6:72 7:74 8:71 9:70 10:69 
-2 2 1:12 2:13 3:23 4:75 5:76 6:73 7:75 8:69 9:70 10:67 
-2 2 1:11 2:8 3:9 4:74 5:74 6:69 7:76 8:73 9:71 10:70 
-2 2 1:11 2:10 3:3 4:75 5:69 6:70 7:79 8:77 9:73 10:74 
-2 0 1:2 2:8 3:27 4:74 5:71 6:72 7:74 8:71 9:70 10:69 
-2 2 1:4 2:13 3:32 4:73 5:72 6:71 7:80 8:79 9:77 10:75 
-2 2 1:7 2:9 3:1 4:75 5:76 6:73 7:74 8:71 9:70 10:69 
-2 2 1:12 2:3 3:33 4:74 5:71 6:72 7:74 8:71 9:72 10:72 
-2 2 1:4 2:7 3:12 4:72 5:69 6:66 7:75 8:75 9:70 10:65 
-2 1.991211841049313 1:12 2:9 3:2 4:79 5:74 6:77 7:75 8:67 9:71 10:68 
-2 2 1:8 2:9 3:34 4:75 5:75 6:70 7:78 8:79 9:77 10:76 
-2 2 1:10 2:5 3:13 4:74 5:71 6:72 7:75 8:76 9:73 10:74 
-2 2 1:10 2:7 3:3 4:74 5:71 6:70 7:79 8:77 9:73 10:74 
-2 2 1:8 2:5 3:23 4:80 5:79 6:77 7:75 8:69 9:70 10:67 
-2 2 1:11 2:15 3:4 4:74 5:71 6:70 7:84 8:75 9:76 10:75 
-2 2 1:10 2:7 3:9 4:79 5:74 6:77 7:76 8:73 9:71 10:70 
-2 2 1:7 2:10 3:2 4:73 5:72 6:71 7:75 8:67 9:71 10:68 
-2 2 1:3 2:11 3:27 4:75 5:69 6:70 7:74 8:71 9:70 10:69 
-2 2 1:11 2:5 3:13 4:75 5:67 6:71 7:75 8:76 9:73 10:74 
-2 2 1:6 2:10 3:34 4:72 5:68 6:70 7:78 8:79 9:77 10:76 
-2 2 1:8 2:7 3:35 4:79 5:74 6:77 7:72 8:69 9:66 10:67 
-2 2 1:5 2:8 3:12 4:74 5:71 6:72 7:75 8:75 9:70 10:65 
-2 2 1:5 2:9 3:18 4:75 5:69 6:70 7:73 8:71 9:71 10:72 
-2 2 1:6 2:4 3:31 4:74 5:74 6:69 7:72 8:68 9:70 10:68 
-2 2 1:6 2:10 3:30 4:75 5:75 6:70 7:73 8:72 9:71 10:68 
-2 2 1:8 2:11 3:35 4:73 5:72 6:71 7:72 8:69 9:66 10:67 
-2 2 1:8 2:7 3:12 4:75 5:76 6:73 7:75 8:75 9:70 10:65 
-2 2 1:10 2:10 3:18 4:74 5:71 6:70 7:73 8:71 9:71 10:72 
-2 2 1:5 2:4 3:33 4:72 5:68 6:70 7:74 8:71 9:72 10:72 
-2 2 1:4 2:6 3:23 4:76 5:73 6:71 7:75 8:69 9:70 10:67 
-2 2 1:7 2:8 3:18 4:74 5:71 6:70 7:73 8:71 9:71 10:72 
-2 2 1:6 2:4 3:20 4:74 5:71 6:72 7:74 8:74 9:69 10:69 
-2 2 1:5 2:8 3:33 4:74 5:74 6:69 7:74 8:71 9:72 10:72 
-2 2 1:11 2:8 3:23 4:72 5:69 6:66 7:75 8:69 9:70 10:67 
-2 2 1:9 2:18 3:4 4:75 5:75 6:70 7:84 8:75 9:76 10:75 
-2 2 1:1 2:4 3:1 4:76 5:73 6:71 7:74 8:71 9:70 10:69 
-2 2 1:7 2:7 3:27 4:75 5:67 6:71 7:74 8:71 9:70 10:69 
-2 2 1:7 2:7 3:2 4:74 5:71 6:72 7:75 8:67 9:71 10:68 
-2 2 1:9 2:3 3:20 4:73 5:71 6:71 7:74 8:74 9:69 10:69 
-2 2 1:4 2:2 3:30 4:74 5:74 6:69 7:73 8:72 9:71 10:68 
-2 2 1:8 2:13 3:13 4:74 5:71 6:72 7:75 8:76 9:73 10:74 
-2 2 1:11 2:2 3:30 4:75 5:76 6:73 7:73 8:72 9:71 10:68 
-2 2 1:5 2:4 3:20 4:75 5:67 6:71 7:74 8:74 9:69 10:69 
-2 2 1:2 2:6 3:3 4:73 5:72 6:71 7:79 8:77 9:73 10:74 
-2 2 1:10 2:4 3:1 4:72 5:68 6:70 7:74 8:71 9:70 10:69 
-2 2 1:8 2:9 3:34 4:74 5:71 6:70 7:78 8:79 9:77 10:76 
-2 0.8694090173426519 1:5 2:10 3:35 4:74 5:71 6:72 7:72 8:69 9:66 10:67 
-2 2 1:5 2:18 3:25 4:74 5:74 6:69 7:83 8:79 9:78 10:76 
-2 2 1:0 2:0 3:27 4:75 5:70 6:70 7:74 8:68 9:68 10:68 
-2 2 1:0 2:0 3:25 4:74 5:69 6:67 7:83 8:74 9:79 10:76 
-2 2 1:0 2:0 3:1 4:74 5:65 6:70 7:74 8:68 9:69 10:67 
-2 2 1:3 2:1 3:9 4:79 5:73 6:74 7:75 8:70 9:70 10:70 
-2 2 1:1 2:3 3:26 4:74 5:68 6:69 7:72 8:68 9:68 10:67 
-2 2 1:3 2:3 3:2 4:74 5:71 6:67 7:76 8:69 9:70 10:70 
-2 2 1:2 2:3 3:13 4:75 5:70 6:70 7:75 8:68 9:71 10:69 
-2 2 1:9 2:6 3:3 4:79 5:76 6:73 7:79 8:75 9:70 10:72 
-2 2 1:1 2:3 3:16 4:74 5:68 6:68 7:73 8:72 9:70 10:71 
-2 0.8287193150405853 1:7 2:3 3:23 4:79 5:73 6:74 7:73 8:68 9:69 10:69 
-2 2 1:3 2:10 3:25 4:72 5:67 6:66 7:83 8:74 9:79 10:76 
-2 2 1:12 2:7 3:18 4:83 5:82 6:80 7:74 8:69 9:67 10:67 
-2 2 1:2 2:4 3:30 4:74 5:68 6:68 7:74 8:71 9:67 10:68 
-2 2 1:5 2:6 3:20 4:74 5:68 6:69 7:73 8:68 9:71 10:69 
-2 2 1:4 2:4 3:17 4:74 5:65 6:70 7:72 8:67 9:66 10:68 
-2 2 1:7 2:15 3:34 4:73 5:72 6:70 7:78 8:78 9:76 10:73 
-2 2 1:3 2:5 3:22 4:75 5:70 6:70 7:74 8:65 9:70 10:68 
-2 2 1:5 2:8 3:16 4:74 5:68 6:69 7:73 8:72 9:70 10:71 
-2 2 1:10 2:2 3:27 4:79 5:76 6:73 7:74 8:68 9:68 10:68 
-2 2 1:5 2:16 3:34 4:74 5:71 6:67 7:78 8:78 9:76 10:73 
-2 2 1:7 2:5 3:1 4:79 5:75 6:70 7:74 8:68 9:69 10:67 
-2 2 1:6 2:5 3:30 4:74 5:68 6:69 7:74 8:71 9:67 10:68 
-2 2 1:6 2:12 3:12 4:73 5:68 6:69 7:74 8:71 9:68 10:67 
-2 2 1:10 2:7 3:9 4:74 5:69 6:67 7:75 8:70 9:70 10:70 
-2 0 1:6 2:5 3:27 4:75 5:68 6:71 7:74 8:68 9:68 10:68 
-2 2 1:11 2:7 3:32 4:78 5:78 6:76 7:79 8:76 9:73 10:72 
-2 2 1:3 2:5 3:27 4:74 5:68 6:69 7:74 8:68 9:68 10:68 
-2 2 1:8 2:6 3:22 4:79 5:76 6:73 7:74 8:65 9:70 10:68 
-2 2 1:2 2:6 3:17 4:74 5:71 6:67 7:72 8:67 9:66 10:68 
-2 2 1:7 2:5 3:27 4:74 5:65 6:70 7:74 8:68 9:68 10:68 
-2 2 1:10 2:2 3:30 4:75 5:70 6:70 7:74 8:71 9:67 10:68 
-2 2 1:7 2:9 3:16 4:73 5:68 6:69 7:73 8:72 9:70 10:71 
-2 2 1:12 2:8 3:23 4:79 5:75 6:70 7:73 8:68 9:69 10:69 
-2 2 1:5 2:13 3:13 4:74 5:65 6:70 7:75 8:68 9:71 10:69 
-2 2 1:6 2:9 3:2 4:73 5:68 6:71 7:76 8:69 9:70 10:70 
-2 2 1:8 2:2 3:30 4:73 5:68 6:69 7:74 8:71 9:67 10:68 
-2 2 1:4 2:15 3:25 4:74 5:68 6:69 7:83 8:74 9:79 10:76 
-2 2 1:6 2:16 3:32 4:73 5:68 6:69 7:79 8:76 9:73 10:72 
-2 2 1:4 2:9 3:29 4:75 5:70 6:70 7:79 8:73 9:74 10:74 
-2 2 1:13 2:4 3:23 4:74 5:68 6:68 7:73 8:68 9:69 10:69 
-2 2 1:10 2:4 3:20 4:79 5:73 6:74 7:73 8:68 9:71 10:69 
-2 0 1:5 2:6 3:18 4:74 5:65 6:70 7:74 8:69 9:67 10:67 
-2 2 1:10 2:18 3:4 4:74 5:71 6:67 7:83 8:82 9:80 10:80 
-2 2 1:5 2:4 3:13 4:73 5:68 6:71 7:75 8:68 9:71 10:69 
-2 2 1:16 2:11 3:30 4:79 5:76 6:73 7:74 8:71 9:67 10:68 
-2 2 1:9 2:3 3:20 4:78 5:78 6:76 7:73 8:68 9:71 10:69 
-2 2 1:7 2:4 3:9 4:74 5:68 6:69 7:75 8:70 9:70 10:70 
-2 2 1:11 2:10 3:27 4:74 5:71 6:67 7:74 8:68 9:68 10:68 
-2 2 1:6 2:8 3:29 4:79 5:75 6:70 7:79 8:73 9:74 10:74 
-2 2 1:3 2:4 3:13 4:73 5:72 6:70 7:75 8:68 9:71 10:69 
-2 2 1:8 2:10 3:34 4:73 5:68 6:69 7:78 8:78 9:76 10:73 
-2 2 1:5 2:13 3:25 4:75 5:70 6:70 7:83 8:74 9:79 10:76 
-2 2 1:5 2:4 3:3 4:75 5:68 6:71 7:79 8:75 9:70 10:72 
-2 2 1:7 2:9 3:23 4:74 5:68 6:69 7:73 8:68 9:69 10:69 
-2 2 1:7 2:6 3:9 4:74 5:65 6:70 7:75 8:70 9:70 10:70 
-2 2 1:9 2:12 3:17 4:72 5:68 6:68 7:72 8:67 9:66 10:68 
-2 2 1:8 2:16 3:4 4:79 5:73 6:74 7:83 8:82 9:80 10:80 
-2 2 1:6 2:6 3:2 4:75 5:68 6:71 7:76 8:69 9:70 10:70 
-2 0 1:5 2:6 3:30 4:78 5:78 6:76 7:74 8:71 9:67 10:68 
-2 2 1:8 2:8 3:3 4:74 5:68 6:69 7:79 8:75 9:70 10:72 
-2 2 1:13 2:7 3:18 4:72 5:67 6:66 7:74 8:69 9:67 10:67 
-2 2 1:7 2:11 3:29 4:74 5:69 6:67 7:79 8:73 9:74 10:74 
-2 2 1:4 2:6 3:12 4:73 5:72 6:70 7:74 8:71 9:68 10:67 
-2 2 1:8 2:14 3:17 4:73 5:68 6:69 7:72 8:67 9:66 10:68 
-2 2 1:9 2:8 3:9 4:73 5:68 6:71 7:75 8:70 9:70 10:70 
-2 2 1:15 2:16 3:4 4:83 5:74 6:79 7:83 8:82 9:80 10:80 
-2 2 1:4 2:11 3:3 4:74 5:71 6:68 7:79 8:75 9:70 10:72 
-2 2 1:11 2:13 3:30 4:72 5:67 6:66 7:74 8:71 9:67 10:68 
-2 2 1:7 2:9 3:34 4:74 5:69 6:67 7:78 8:78 9:76 10:73 
-2 2 1:13 2:7 3:9 4:74 5:71 6:67 7:75 8:70 9:70 10:70 
-2 2 1:0 2:7 3:34 4:74 5:68 6:69 7:78 8:78 9:76 10:73 
-2 2 1:5 2:12 3:32 4:74 5:71 6:68 7:79 8:76 9:73 10:72 
-0.5759373030861502 2 1:8 2:13 3:4 4:72 5:67 6:66 7:83 8:82 9:80 10:80 
